#ifndef MNIST_WEIGHTS_GENERATED_H
#define MNIST_WEIGHTS_GENERATED_H

#include <stdint.h>

#define MNIST_INPUT_H 28
#define MNIST_INPUT_W 28
#define MNIST_INPUT_SIZE 784
#define MNIST_CONV_K 3
#define MNIST_CONV_OC 8
#define MNIST_POOL 2
#define MNIST_FLAT 1352
#define MNIST_OUT 10
#define MNIST_EVAL_SAMPLES 100

static const float g_conv_w[72] = {
    3.11601579e-01f, 2.05948025e-01f, -1.84607014e-01f, 1.64585575e-01f, 2.18266487e-01f, 1.76522270e-01f, -3.97415496e-02f, 4.17237312e-01f,
    1.75416812e-01f, 1.26671344e-01f, 2.78423429e-01f, 1.88798100e-01f, 3.10698450e-01f, 3.11999619e-01f, 3.13016236e-01f, 1.70664683e-01f,
    1.59620687e-01f, -1.22231387e-01f, -6.98224962e-01f, 2.48714145e-02f, 4.63605642e-01f, -5.82553983e-01f, 2.22630858e-01f, 1.44068524e-01f,
    -1.51442528e-01f, 3.17488402e-01f, 2.50584513e-01f, 4.08237219e-01f, -4.71830256e-02f, -2.20885262e-01f, 3.61533642e-01f, -5.90155497e-02f,
    1.78086653e-01f, 2.22359389e-01f, 1.50528893e-01f, 1.32880017e-01f, 1.60416022e-01f, -9.35128778e-02f, 3.73405904e-01f, 6.32661721e-03f,
    9.59696807e-03f, 4.06960964e-01f, -3.34643394e-01f, -2.17385098e-01f, 1.90184578e-01f, -2.90445268e-01f, -7.10304439e-01f, -6.39938474e-01f,
    -5.18497713e-02f, -1.79870445e-02f, -5.11474609e-02f, 5.48784733e-01f, 6.14348471e-01f, 5.84526122e-01f, 1.23426005e-01f, 7.03413010e-01f,
    4.87255991e-01f, -3.51991087e-01f, 7.34656826e-02f, 5.01662493e-01f, -8.42582226e-01f, -7.67421782e-01f, -8.82972240e-01f, 3.83727670e-01f,
    2.95861781e-01f, 2.30468228e-01f, 2.68224597e-01f, 6.38647676e-02f, -1.36921436e-01f, -2.80393153e-01f, -9.22618732e-02f, 3.62925380e-01f
};

static const float g_conv_b[8] = {
    -1.63800307e-02f, -8.09646025e-03f, 1.07785173e-01f, -1.51708433e-02f, 5.03671728e-02f, -1.20817976e-05f, 1.60559699e-01f, -1.55561464e-03f
};

static const float g_fc_w[13520] = {
    4.04723510e-02f, 2.64929216e-02f, 2.80177668e-02f, -1.17384098e-01f, -8.14201981e-02f, -3.32005002e-04f, 2.90697590e-02f, 5.87492576e-03f,
    -9.29668099e-02f, -3.82634178e-02f, -4.96986955e-02f, 5.94116636e-02f, -4.80783172e-02f, -2.16615237e-02f, 2.49624904e-02f, 3.42642479e-02f,
    2.02937145e-03f, -2.77405046e-02f, -6.64932504e-02f, -1.65327154e-02f, -4.17412706e-02f, 1.56225070e-01f, -7.73877790e-03f, -8.55110139e-02f,
    1.04709528e-02f, 8.47255886e-02f, 5.42791281e-03f, 3.86207327e-02f, -1.64327517e-01f, -4.21338677e-02f, 7.07743615e-02f, 5.01173027e-02f,
    1.69316120e-02f, -1.12688951e-01f, -2.55574919e-02f, 3.12671997e-02f, 7.43285269e-02f, -4.70509659e-03f, -7.91772529e-02f, -2.21925527e-02f,
    2.64133066e-02f, 1.78751454e-01f, -8.00682381e-02f, -5.51306084e-02f, 9.76535305e-02f, 5.09623699e-02f, 2.51078326e-02f, 1.22794345e-01f,
    -1.17366008e-01f, -4.39638458e-02f, 5.56048490e-02f, 6.20733425e-02f, -7.72899166e-02f, -5.17942682e-02f, -5.05736098e-02f, 2.83033843e-03f,
    2.18259972e-02f, -1.85484737e-02f, 1.52610559e-02f, -2.12153303e-03f, 3.63794691e-03f, 2.04117998e-01f, 2.50436831e-02f, -6.68358877e-02f,
    2.45892331e-02f, 6.72889035e-03f, -4.90283072e-02f, 1.69596840e-02f, -1.26885504e-01f, -9.02004261e-03f, 4.70445156e-02f, 3.80386896e-02f,
    3.76629569e-02f, -3.05955186e-02f, 5.62100820e-02f, 4.91568148e-02f, 1.55018140e-02f, 1.86609421e-02f, -2.93503851e-02f, 4.18967344e-02f,
    2.91494261e-02f, 1.13459013e-01f, -1.98213663e-02f, 4.17366764e-03f, -4.92531359e-02f, -4.38804999e-02f, 1.10466495e-01f, 2.94436868e-02f,
    -1.02023207e-01f, 3.48510332e-02f, 3.03367265e-02f, 4.05682735e-02f, 2.14455929e-03f, 2.70351605e-03f, -1.01538248e-01f, 6.65584877e-02f,
    -1.66693870e-02f, -3.92077342e-02f, -3.73960361e-02f, -5.85227013e-02f, -6.29225820e-02f, 2.00868562e-01f, -3.74569409e-02f, -2.47535687e-02f,
    -2.29739845e-02f, 2.21143924e-02f, 2.34961174e-02f, 1.06125079e-01f, -1.52041703e-01f, -4.96806093e-02f, -3.76575394e-04f, 3.14476751e-02f,
    -1.17960982e-01f, 7.09332079e-02f, -3.62406150e-02f, -7.84014538e-02f, 1.21017560e-01f, -7.78035307e-03f, -8.41809362e-02f, -4.31432202e-02f,
    2.69884877e-02f, 1.71281025e-01f, -1.12502347e-03f, -1.19813547e-01f, 9.38062444e-02f, 6.44283071e-02f, 7.33785257e-02f, 1.94935184e-02f,
    -9.34960395e-02f, -2.29330249e-02f, -7.14494586e-02f, 8.74644816e-02f, -1.33057520e-01f, -1.26441969e-02f, -7.80438781e-02f, -4.56037233e-03f,
    1.37959331e-01f, 3.74209508e-03f, -1.16236389e-01f, 6.12319596e-02f, -3.22535113e-02f, 1.83129802e-01f, 1.64357424e-02f, -5.28348982e-02f,
    7.07062334e-02f, -4.26318822e-03f, 4.46428880e-02f, 8.65719393e-02f, -1.42428771e-01f, 1.75446272e-02f, -1.07667103e-01f, 5.40295094e-02f,
    -1.11437559e-01f, 2.89297849e-02f, 3.35243382e-02f, -7.60960672e-03f, 1.22796685e-01f, -4.83600497e-02f, -4.68335487e-02f, -2.40168329e-02f,
    -4.79710959e-02f, 9.70705971e-03f, -1.10229841e-02f, 9.83577520e-02f, -8.89264867e-02f, -6.74872473e-02f, 1.74368382e-01f, -1.09401353e-01f,
    -6.78941682e-02f, -1.16796773e-02f, -9.90724005e-03f, 5.42739294e-02f, -1.31462872e-01f, 1.00277491e-01f, -1.05998218e-01f, -2.35389406e-03f,
    2.00108096e-01f, -6.14904724e-02f, -7.16757774e-03f, 4.89610396e-02f, -4.73465174e-02f, 1.61009684e-01f, 3.82073112e-02f, -3.25512327e-02f,
    5.29984049e-02f, 2.71304650e-03f, 6.16012402e-02f, 6.60146028e-02f, -1.03722520e-01f, -9.05760154e-02f, -4.32183500e-03f, -4.39456068e-02f,
    -1.06296666e-01f, 4.19549271e-02f, -1.24663703e-01f, -2.36089751e-02f, 1.65820554e-01f, -4.69053723e-02f, -1.61627531e-01f, -2.08385661e-02f,
    2.14717574e-02f, 1.23767026e-01f, 3.28676812e-02f, -2.72011962e-02f, -6.36996105e-02f, -2.92228851e-02f, 3.84465046e-02f, 9.29956883e-02f,
    -1.84079140e-01f, -1.09733688e-02f, -4.71260808e-02f, -8.06408897e-02f, -9.98800695e-02f, -2.05214927e-03f, -4.07926887e-02f, -8.65646303e-02f,
    1.20060906e-01f, -8.38574246e-02f, -1.04727693e-01f, -3.06540579e-02f, 4.01676400e-04f, 1.40082315e-01f, -5.72018959e-02f, -1.73632856e-02f,
    4.33972850e-02f, 8.29763114e-02f, 6.18369617e-02f, 5.58321588e-02f, -1.34859368e-01f, 1.90712418e-02f, -2.99851559e-02f, -5.31048775e-02f,
    -8.46604258e-03f, 2.75732297e-02f, -1.27292708e-01f, -4.51356880e-02f, 9.03773606e-02f, -4.80519831e-02f, -9.67629999e-02f, -4.50044870e-02f,
    -5.86973093e-02f, -1.54062152e-01f, 1.07634775e-01f, 8.52484927e-02f, -2.39660248e-01f, -9.49795395e-02f, 4.94281650e-02f, -7.09307566e-02f,
    1.86236175e-05f, -6.92938194e-02f, -6.07972853e-02f, -6.27032444e-02f, 9.11313388e-03f, 2.53046602e-02f, -1.96380258e-01f, -2.70735677e-02f,
    1.80137351e-01f, -9.65250656e-02f, -1.16296276e-01f, -8.93006921e-02f, 6.07748167e-04f, 9.59603041e-02f, 2.18653977e-02f, -5.19114435e-02f,
    2.16080863e-02f, 2.01690905e-02f, 1.84376873e-02f, 3.90555300e-02f, -1.16644464e-01f, -4.24854197e-02f, -7.94452727e-02f, -1.72128901e-01f,
    4.27564122e-02f, -1.09152985e-03f, -2.13638827e-01f, -9.81272459e-02f, 1.32837251e-01f, -1.26558304e-01f, -2.89038401e-02f, -1.40661240e-01f,
    -5.94749898e-02f, 7.32501373e-02f, 5.93262315e-02f, -9.67705622e-03f, -7.50596523e-02f, 5.32771796e-02f, 9.41280723e-02f, 2.56990679e-02f,
    -1.57438457e-01f, -2.52624555e-03f, -6.01321571e-02f, -1.60682946e-01f, 8.19059461e-03f, 1.00368328e-01f, -1.36234120e-01f, -7.42482021e-02f,
    7.47970492e-02f, -9.03936327e-02f, -5.92026599e-02f, -5.76992705e-02f, 2.93209963e-02f, 9.55596119e-02f, -4.87503484e-02f, -1.12672828e-01f,
    1.16935642e-02f, 5.02428450e-02f, -4.73992247e-03f, 2.42837183e-02f, -7.86008611e-02f, 1.27247861e-02f, 1.04220421e-03f, -1.18853152e-01f,
    2.00820956e-02f, 3.69894169e-02f, -1.73672482e-01f, -1.39120780e-03f, 6.38888180e-02f, -6.92206547e-02f, -1.25696480e-01f, -6.03352934e-02f,
    -5.23023419e-02f, -1.23732857e-01f, 9.53613296e-02f, 1.09564885e-02f, -1.90506503e-01f, -1.08696148e-01f, 1.57418817e-01f, -8.70026201e-02f,
    -3.48741934e-02f, -1.25441775e-01f, -3.88418920e-02f, -8.52947533e-02f, 9.87796262e-02f, 1.64707366e-03f, -2.39041835e-01f, -1.35521904e-01f,
    1.05507381e-01f, -6.93370104e-02f, -2.37986650e-02f, -1.28256842e-01f, 7.69640144e-04f, 2.42703706e-02f, 9.68485475e-02f, -7.08326250e-02f,
    -3.63101102e-02f, 4.94528078e-02f, 9.92461294e-02f, -8.83521419e-03f, -1.23235323e-01f, -1.23745538e-01f, -4.35785614e-02f, -1.86960325e-01f,
    4.49019074e-02f, 4.13053110e-02f, -2.57125735e-01f, -1.27544180e-01f, 1.04260959e-01f, -2.04026431e-01f, -1.17449723e-01f, -7.88212866e-02f,
    -3.53000648e-02f, 1.23811319e-01f, 4.12147380e-02f, -8.43822509e-02f, -8.05747285e-02f, -2.93154027e-02f, 1.66219309e-01f, 5.31025566e-02f,
    -1.49638653e-01f, -1.03790611e-01f, -1.08489603e-01f, -1.27449647e-01f, 1.48492038e-01f, 7.47127226e-03f, -2.39832401e-01f, -6.35514483e-02f,
    6.53892383e-02f, -1.04500346e-01f, -5.06222108e-03f, -1.25431314e-01f, -4.12113108e-02f, 2.13568792e-01f, -1.35035533e-02f, -9.40662250e-02f,
    5.53107969e-02f, -1.07392473e-02f, 5.06722294e-02f, 3.45511027e-02f, -1.37961715e-01f, 3.53505984e-02f, -1.04367565e-02f, -9.51115340e-02f,
    3.30076665e-02f, 2.17331890e-02f, -1.78633094e-01f, -8.58100280e-02f, 1.17360547e-01f, -2.02065319e-01f, -1.16462968e-01f, -1.70331821e-01f,
    -6.20572791e-02f, -1.51238844e-01f, 2.49525867e-02f, 1.02103166e-01f, -1.95240885e-01f, -5.70259504e-02f, 3.90142500e-02f, -7.33778924e-02f,
    -1.01196207e-01f, -1.91955313e-01f, -1.11173786e-01f, -8.82794783e-02f, 7.68653154e-02f, 3.89211997e-02f, -2.42635906e-01f, -1.59548089e-01f,
    5.57696708e-02f, -1.77013710e-01f, -6.53319955e-02f, -1.15369253e-01f, -1.67613663e-02f, 1.09029174e-01f, 4.34134081e-02f, -4.45381738e-02f,
    -1.82117552e-01f, -4.68797199e-02f, 9.68362838e-02f, 4.27877754e-02f, -1.88305467e-01f, -7.33456537e-02f, -3.58278826e-02f, -5.58269694e-02f,
    1.20504625e-01f, 6.55334368e-02f, -2.28565127e-01f, -1.40248880e-01f, 1.10601664e-01f, -1.67864680e-01f, -5.27819954e-02f, -1.55018106e-01f,
    -5.78772975e-03f, 7.54014701e-02f, -5.87288514e-02f, -1.09296098e-01f, -1.17654480e-01f, -2.63241436e-02f, 7.88000077e-02f, 1.97850484e-02f,
    -1.37340114e-01f, -5.06089441e-02f, -5.96698895e-02f, -6.49317354e-02f, 9.04842690e-02f, 5.01151457e-02f, -2.34243929e-01f, -6.89380318e-02f,
    7.11554065e-02f, -2.03366280e-01f, -3.17508690e-02f, -1.57191545e-01f, 6.42034933e-02f, 1.50011420e-01f, -6.16692752e-02f, -4.60589081e-02f,
    9.99829471e-02f, 7.95937330e-03f, -9.98325925e-03f, 1.09109610e-01f, -8.44062790e-02f, -8.74187350e-02f, -1.03544697e-01f, 2.69512199e-02f,
    4.45761047e-02f, 6.62140474e-02f, -2.38623619e-01f, -6.52338415e-02f, 8.35520551e-02f, -8.38203058e-02f, -7.55639300e-02f, -1.78013146e-01f,
    -3.25189494e-02f, -3.06537636e-02f, -1.41370380e-02f, 9.55329016e-02f, -2.26669520e-01f, -2.28602681e-02f, 7.32939690e-02f, -1.15568683e-01f,
    -1.38290554e-01f, -1.99055478e-01f, -1.15142994e-01f, -6.71869027e-04f, 7.19787879e-03f, 3.07778288e-02f, -2.47410163e-01f, -4.66593020e-02f,
    1.01157159e-01f, -1.68205619e-01f, -9.68553498e-02f, -1.01767033e-01f, -3.33700627e-02f, 2.47885305e-02f, 4.64731827e-02f, 8.42065364e-02f,
    -1.04297228e-01f, 3.77170667e-02f, 9.98514593e-02f, -4.26478386e-02f, -1.20415926e-01f, -3.81294712e-02f, -4.30145971e-02f, 1.73114631e-02f,
    9.52378139e-02f, 4.97063212e-02f, -2.48719513e-01f, -2.79910173e-02f, 1.11061603e-01f, -1.28446132e-01f, -4.79351990e-02f, -2.02222079e-01f,
    1.47914290e-02f, 1.70630202e-01f, -9.12974924e-02f, -7.70233795e-02f, -2.16785353e-02f, -2.90180445e-02f, 1.41444445e-01f, 5.23170754e-02f,
    -1.85410112e-01f, -4.15106751e-02f, -1.14219308e-01f, -8.95807296e-02f, 7.08900988e-02f, 2.33181715e-02f, -2.05057785e-01f, -7.04005826e-03f,
    -3.76370624e-02f, -7.56728277e-02f, -1.74660068e-02f, -8.93560499e-02f, -1.22637656e-02f, 6.47571459e-02f, 6.50963038e-02f, -1.29928097e-01f,
    1.03575625e-01f, 5.27754761e-02f, -8.71053413e-02f, 9.84115079e-02f, -1.38957500e-01f, -1.43363131e-02f, -1.10756997e-02f, -2.19122577e-03f,
    -1.96528602e-02f, -1.43123111e-02f, -1.20425418e-01f, -8.73709563e-03f, 6.90318868e-02f, -8.62877220e-02f, -1.35401458e-01f, -1.78832665e-01f,
    -4.96846177e-02f, 3.28557529e-02f, 1.54813686e-02f, 5.09921722e-02f, -2.03166261e-01f, 7.12351426e-02f, 3.63665968e-02f, -6.26361370e-02f,
    -4.88702580e-02f, -1.78482771e-01f, -1.01108290e-01f, -6.55757776e-03f, -7.01930840e-03f, 2.51781587e-02f, -1.42472699e-01f, -3.77294682e-02f,
    4.06939862e-03f, -4.42866832e-02f, -6.09234385e-02f, -1.67219371e-01f, -4.12615947e-02f, -2.60819625e-02f, 3.02250925e-02f, 6.37454689e-02f,
    -1.70235746e-02f, 2.01537926e-02f, 1.07161075e-01f, 3.09505612e-02f, -1.57054931e-01f, -6.93858415e-02f, -8.20224434e-02f, 5.64544871e-02f,
    -2.61011044e-03f, 7.07600638e-02f, -1.51600361e-01f, -3.65504064e-02f, 8.68090168e-02f, -9.08859000e-02f, -7.51890615e-02f, -1.18525550e-01f,
    -1.26689710e-02f, 6.07034676e-02f, -1.60723310e-02f, -4.20586541e-02f, -1.08682193e-01f, 4.11454402e-02f, 2.51177996e-02f, 7.54141435e-03f,
    -1.05189435e-01f, -3.84232774e-02f, -4.98867482e-02f, -6.15550466e-02f, 3.16825099e-02f, 9.14692208e-02f, -1.51774734e-01f, 4.80958112e-02f,
    -9.14272736e-04f, -1.80572663e-02f, -1.03577897e-01f, -6.91364110e-02f, 3.00816707e-02f, 8.43242556e-02f, 3.18693649e-03f, -7.83347562e-02f,
    9.94193032e-02f, 7.82491788e-02f, -9.68689322e-02f, 1.20699614e-01f, -1.54263228e-01f, -4.43560956e-03f, -5.40635884e-02f, -7.05199987e-02f,
    -8.19140449e-02f, -3.36964652e-02f, -1.45858839e-01f, -1.12377750e-02f, 9.18699428e-02f, -2.16304567e-02f, -4.71451730e-02f, -1.44856215e-01f,
    -1.34894341e-01f, -1.31270021e-01f, -3.10609397e-02f, -1.26339132e-02f, -1.74410999e-01f, -6.63200743e-04f, 1.80977769e-02f, -4.22779918e-02f,
    -7.93034285e-02f, -1.17916100e-01f, -8.39560628e-02f, -3.79161513e-03f, -1.00798406e-01f, 1.72886644e-02f, -2.07010537e-01f, -3.78215425e-02f,
    5.16470708e-02f, -1.18739255e-01f, -3.99569161e-02f, -1.47104397e-01f, -1.02864385e-01f, 9.19902115e-04f, -4.77394648e-02f, 2.07317397e-02f,
    -2.70717163e-02f, -8.16327706e-03f, 4.80171926e-02f, 6.58584908e-02f, -1.72506347e-01f, -1.11702159e-01f, -3.76821868e-02f, -2.32512075e-02f,
    5.76776732e-03f, 8.87778327e-02f, -1.59572750e-01f, 2.64373459e-02f, 6.81464300e-02f, -8.99953768e-02f, -1.11759141e-01f, -1.58329725e-01f,
    9.14734602e-03f, -5.05845746e-05f, -1.23848155e-01f, -8.33740085e-02f, 2.83770962e-03f, -4.29264419e-02f, 2.02257216e-01f, 5.52298594e-03f,
    -1.30162597e-01f, -7.11153597e-02f, -2.68973429e-02f, -6.06445670e-02f, -4.98990566e-02f, 4.53923233e-02f, -1.00383282e-01f, 1.18730040e-02f,
    1.13249691e-02f, -4.32243273e-02f, -2.66234055e-02f, -5.70051372e-02f, 5.30783311e-02f, 1.34657398e-01f, -3.67174707e-02f, -8.81443992e-02f,
    5.30348942e-02f, 1.54140983e-02f, -2.94854073e-03f, 1.23869836e-01f, -7.33139813e-02f, -5.33305816e-02f, -1.58988595e-01f, -9.15769860e-02f,
    -7.01894835e-02f, -5.61028309e-02f, -8.18350762e-02f, 2.11302843e-02f, 1.79058120e-01f, -7.81336129e-02f, -7.77924582e-02f, -1.60856649e-01f,
    -1.64834812e-01f, -1.69517905e-01f, -5.24310023e-02f, 7.51184160e-03f, 1.10580958e-02f, -2.19678995e-03f, 1.45680085e-01f, -8.19825679e-02f,
    -7.27832094e-02f, -1.56343639e-01f, -1.80483475e-01f, -1.50914803e-01f, -1.09171987e-01f, -5.14487512e-02f, -2.03519419e-01f, 1.60934478e-02f,
    1.35852680e-01f, -2.39546373e-02f, -6.61663413e-02f, -9.86113250e-02f, -9.24413800e-02f, -5.83709106e-02f, -1.32345436e-02f, -6.15104064e-02f,
    -3.95628326e-02f, -2.05067359e-02f, 7.27498457e-02f, 7.95132220e-02f, -1.81445360e-01f, -2.55355914e-03f, -1.38510957e-01f, -1.71917140e-01f,
    -1.33009255e-01f, 1.74951851e-02f, -1.13821626e-01f, 4.59754951e-02f, 1.49452746e-01f, -8.75970274e-02f, -9.36186686e-02f, -6.15793280e-02f,
    -4.51193415e-02f, 8.38921517e-02f, 7.59872748e-03f, -1.02031574e-01f, 8.40388611e-02f, -2.06387714e-02f, 6.74454868e-02f, 6.61168694e-02f,
    -1.37544155e-01f, -5.05201630e-02f, -1.17326692e-01f, -1.44555703e-01f, -5.68485819e-02f, -1.65331997e-02f, -9.23953876e-02f, 9.73707885e-02f,
    7.52757788e-02f, -3.51358615e-02f, 8.99272319e-03f, -1.25940263e-01f, 4.59586903e-02f, 1.87645271e-01f, 4.65472636e-04f, -1.46822436e-02f,
    4.82088439e-02f, -4.68049524e-03f, -6.44288063e-02f, 7.16089159e-02f, -7.41037652e-02f, -3.88638861e-02f, -5.37535027e-02f, -1.43997326e-01f,
    -1.83176756e-01f, -2.97898464e-02f, -7.76663516e-03f, 7.15578496e-02f, 1.69678643e-01f, 1.05682919e-02f, -4.25399877e-02f, -1.33219510e-01f,
    -1.91623852e-01f, -1.39210761e-01f, -4.55435477e-02f, -1.14368156e-01f, -1.83450300e-02f, 4.16899696e-02f, 1.60727337e-01f, -1.17229307e-02f,
    3.07174698e-02f, -8.94177407e-02f, -4.88318540e-02f, -1.40204579e-01f, -7.88182914e-02f, -1.61598716e-02f, -1.12757474e-01f, -7.59894326e-02f,
    1.03034995e-01f, -4.59847264e-02f, -7.04156086e-02f, -1.31464079e-01f, -1.05717361e-01f, 7.64006898e-02f, 1.70732718e-02f, -4.14391868e-02f,
    -1.10408561e-02f, 9.63103622e-02f, 1.30115166e-01f, 7.71439970e-02f, -1.43756568e-01f, -3.24963145e-02f, -1.35137394e-01f, -1.18232168e-01f,
    -2.05338635e-02f, -1.25163896e-02f, 1.38689466e-02f, -3.41364630e-02f, 8.89235660e-02f, -8.99611339e-02f, 5.41436765e-03f, -2.39451379e-02f,
    3.42218392e-02f, 1.14828691e-01f, -2.54422780e-02f, -8.78797993e-02f, 1.23413894e-02f, -3.28922756e-02f, 3.75885703e-02f, 2.29602549e-02f,
    -1.64901078e-01f, 9.35218018e-03f, -5.50170951e-02f, -1.49222001e-01f, -3.45021673e-02f, -3.90704982e-02f, 3.37134376e-02f, 3.34839039e-02f,
    2.34751701e-02f, -1.52172875e-02f, -2.19760984e-02f, -4.58395928e-02f, 4.59745601e-02f, 2.14010209e-01f, -3.57204094e-03f, -2.47957986e-02f,
    9.05849487e-02f, -2.64909379e-02f, -1.07938675e-02f, 1.25924215e-01f, -1.55297488e-01f, -7.32106790e-02f, -8.29968825e-02f, -9.74132344e-02f,
    -6.20685779e-02f, -1.08877033e-01f, -7.88965598e-02f, 1.09683890e-02f, 1.12631641e-01f, -1.80202853e-02f, -6.52851462e-02f, -3.02501209e-02f,
    -2.42179837e-02f, -1.43898234e-01f, -4.03881632e-02f, -1.77994490e-01f, 7.10106129e-03f, 2.08698958e-02f, 2.21530665e-02f, 2.13489998e-02f,
    -5.23217081e-04f, -1.95958689e-02f, -8.70026425e-02f, -1.66515186e-01f, -6.26863241e-02f, -1.55716091e-01f, -2.94053257e-02f, 2.54772473e-02f,
    1.55578002e-01f, -3.55627425e-02f, -5.95590547e-02f, 4.37821262e-03f, -4.93456312e-02f, 1.11891985e-01f, -5.45929559e-02f, -1.39681652e-01f,
    6.06502965e-02f, 6.64612129e-02f, 4.41636480e-02f, 1.19610816e-01f, -1.45580813e-01f, -2.86973175e-02f, -8.91179517e-02f, -1.64474890e-01f,
    -9.02740508e-02f, -1.77913755e-01f, -7.54796043e-02f, -5.85682616e-02f, 9.25399885e-02f, -7.63978157e-03f, -5.22722432e-04f, -2.21384712e-03f,
    4.60316688e-02f, 1.69966996e-01f, -7.20834453e-03f, -7.77721554e-02f, 6.94549754e-02f, 7.10919946e-02f, 5.35267554e-02f, 3.84434089e-02f,
    -6.53693825e-02f, -1.26875397e-02f, -4.29823026e-02f, -2.15928435e-01f, -5.96308522e-02f, -1.14485361e-01f, -4.00973295e-06f, -1.20593887e-02f,
    1.04341753e-01f, -6.17834702e-02f, -4.09349799e-02f, -5.50808236e-02f, 6.24890029e-02f, 2.06798360e-01f, -8.39351788e-02f, -1.15000047e-01f,
    8.08247477e-02f, 1.00487042e-02f, -2.17261482e-02f, 1.95661206e-02f, -1.87220201e-01f, -3.84573936e-02f, -3.42315882e-02f, 9.18538123e-03f,
    1.34275798e-02f, -6.94367066e-02f, -1.95991043e-02f, -6.22116495e-03f, 5.57032786e-02f, 2.13597547e-02f, -2.14793552e-02f, 8.92971549e-03f,
    -1.04615480e-01f, 4.42958027e-02f, 4.35414538e-02f, -6.72694892e-02f, -8.67348164e-02f, 7.64241517e-02f, 3.62249129e-02f, 6.57464489e-02f,
    -1.71511486e-01f, -5.21146432e-02f, -6.40874282e-02f, -5.00699840e-02f, 4.11256552e-02f, -6.68777749e-02f, -3.16528119e-02f, -2.78163776e-02f,
    7.69059062e-02f, -2.09477600e-02f, -6.78026006e-02f, -6.65768981e-03f, -3.00117470e-02f, 1.97861135e-01f, -2.47263210e-03f, -9.83673185e-02f,
    1.64663251e-02f, -4.11874987e-02f, 5.19929044e-02f, 2.78819259e-02f, -9.83055606e-02f, -6.35481328e-02f, -4.09066714e-02f, -9.12652984e-02f,
    -3.28225978e-02f, -1.57852039e-01f, -1.22194454e-01f, -1.40080452e-02f, 7.88037702e-02f, 4.98368517e-02f, -1.12996265e-01f, 1.15264729e-02f,
    -1.62868388e-02f, 8.50602984e-02f, 4.03870642e-02f, -7.67416954e-02f, 4.92130034e-02f, 1.82636566e-02f, -2.20027827e-02f, 1.30045578e-01f,
    -1.38019741e-01f, 2.66826916e-02f, -7.55516291e-02f, -4.75299768e-02f, 2.92347814e-03f, -1.29286304e-01f, -1.14521326e-03f, 5.85653260e-02f,
    7.50053003e-02f, 5.87217277e-03f, -1.60534412e-01f, -9.80250188e-04f, -1.78332794e-02f, 9.86641049e-02f, -8.44623074e-02f, -3.51812094e-02f,
    6.88744038e-02f, 1.15222987e-02f, 1.51269818e-02f, 7.26260841e-02f, -1.70308948e-01f, -5.85222803e-02f, 1.75446086e-02f, 1.78479254e-02f,
    2.55037844e-02f, -6.69325814e-02f, 6.72898721e-04f, 3.08244321e-02f, 1.07566472e-02f, 7.85528496e-02f, -4.34811600e-02f, 6.78145960e-02f,
    5.35551319e-03f, 1.10906564e-01f, -3.04743387e-02f, 7.95153752e-02f, 3.33149545e-02f, -6.02117702e-02f, -4.71359640e-02f, -2.39292136e-03f,
    -8.41620415e-02f, 3.27022225e-02f, 3.51481065e-02f, 1.07217031e-02f, -3.67656685e-02f, 2.67025176e-02f, 1.57392155e-02f, -3.57131399e-02f,
    1.66287404e-02f, -7.85482004e-02f, -1.10300183e-01f, 2.60531381e-02f, -3.67160253e-02f, 1.58428475e-01f, -9.02860798e-03f, -1.21256746e-01f,
    6.61421567e-02f, -3.85464029e-03f, 6.76897392e-02f, 1.20741166e-01f, -1.48661435e-01f, 3.32685746e-02f, -4.05183341e-03f, 1.04141571e-01f,
    -5.47043346e-02f, 8.42274353e-02f, -5.35454638e-02f, -4.53655794e-02f, -4.31781113e-02f, 1.97377671e-02f, -7.28571638e-02f, -5.26156351e-02f,
    5.19268885e-02f, 1.51411548e-01f, 1.88939925e-02f, -8.32213014e-02f, 8.17180648e-02f, 2.87240595e-02f, -2.83082500e-02f, 1.81612037e-02f,
    -1.75469309e-01f, 2.25683283e-02f, 5.41998185e-02f, 9.09009054e-02f, -3.66808027e-02f, 1.50198732e-02f, 3.34999114e-02f, -1.08490579e-01f,
    -7.70255970e-03f, -3.71530093e-02f, -1.28327087e-01f, 4.73002829e-02f, -5.54251298e-02f, 2.00266674e-01f, -6.27017617e-02f, -4.53744680e-02f,
    3.55708078e-02f, -2.06871331e-02f, 7.61052296e-02f, 5.20234220e-02f, -1.12644427e-01f, -2.39580814e-02f, 2.60058679e-02f, 4.24462780e-02f,
    -6.69526979e-02f, 5.51618561e-02f, 5.21453694e-02f, -1.82703473e-02f, -7.71724358e-02f, -3.52204032e-02f, -6.22273088e-02f, -5.59591353e-02f,
    -7.51430467e-02f, 6.71196207e-02f, -2.80535817e-02f, 1.25290334e-01f, -6.16967399e-03f, -8.92567337e-02f, 5.17723076e-02f, -5.35721779e-02f,
    -2.16594324e-01f, -2.74246596e-02f, -1.67535860e-02f, -5.79926232e-03f, -5.10532595e-02f, 9.42073241e-02f, 1.72798596e-02f, -1.65134996e-01f,
    6.90954402e-02f, -6.68963268e-02f, -8.36090967e-02f, -6.34603128e-02f, -2.12585554e-04f, 9.16926935e-02f, -5.07817306e-02f, -1.04728490e-02f,
    -2.80109979e-02f, 9.63828899e-03f, 7.37710595e-02f, 1.23067521e-01f, -1.26929387e-01f, -5.11158966e-02f, -1.36320814e-01f, 8.33499134e-02f,
    -2.57785488e-02f, 6.28314614e-02f, 1.67251248e-02f, -1.70928344e-01f, 4.82017323e-02f, -3.72329578e-02f, -1.33642375e-01f, -1.27516732e-01f,
    -8.62134919e-02f, 1.22896224e-01f, -6.14562705e-02f, 1.09880663e-01f, 7.50574917e-02f, -7.19806999e-02f, -1.67335700e-02f, 7.63423368e-02f,
    -1.06074654e-01f, -1.99611746e-02f, -9.75047648e-02f, 8.60860124e-02f, -8.40134099e-02f, 5.58287725e-02f, 1.71063133e-02f, -1.06380492e-01f,
    -7.80818379e-03f, 5.09899892e-02f, -7.61251822e-02f, -1.07496299e-01f, -5.15577234e-02f, 8.12333599e-02f, -6.92917034e-02f, -6.32389039e-02f,
    8.15956667e-02f, 6.26856461e-02f, 6.43931180e-02f, 5.47950119e-02f, -2.03364760e-01f, -8.97961929e-02f, -1.13511130e-01f, 7.17978030e-02f,
    -4.75712158e-02f, 6.82472065e-02f, -1.89697333e-02f, -7.78384805e-02f, -5.95491081e-02f, -1.53005207e-02f, -9.76900458e-02f, -2.05031596e-03f,
    -4.07199711e-02f, -2.35757511e-02f, -6.24350943e-02f, 2.75304094e-02f, -4.26530614e-02f, -7.10635260e-02f, -5.29165268e-02f, -4.48302031e-02f,
    -2.51806304e-02f, -1.24311201e-01f, -1.44143015e-01f, 3.64222229e-02f, -6.94767684e-02f, 1.67769194e-01f, -1.36622302e-02f, -1.21343382e-01f,
    7.20572099e-02f, -1.32119462e-01f, -6.63214773e-02f, -1.27233431e-01f, -5.66698983e-02f, 1.45787671e-01f, 5.57999685e-03f, 6.36226609e-02f,
    2.17573550e-02f, -2.56269500e-02f, 4.72634658e-02f, -1.37359416e-02f, -9.46814269e-02f, -1.42304022e-02f, -3.95815037e-02f, 7.33311474e-02f,
    4.11064513e-02f, 1.05330408e-01f, 5.36764450e-02f, -1.07541651e-01f, -6.50847703e-02f, 2.49230508e-02f, -9.48811993e-02f, -1.31233841e-01f,
    -3.69121768e-02f, 9.58616808e-02f, -4.88028824e-02f, 6.35627145e-03f, -8.75262916e-03f, -9.00348425e-02f, 1.19815037e-01f, 6.02175132e-04f,
    -7.29080439e-02f, -1.21796820e-02f, -7.00135380e-02f, 6.04731739e-02f, -2.41964571e-02f, 6.34312853e-02f, 3.07641234e-02f, -2.79505588e-02f,
    -5.87250926e-02f, -4.84341457e-02f, -8.38413686e-02f, -1.61071539e-01f, -3.23846005e-02f, 1.31386861e-01f, -1.04511119e-02f, -1.18956655e-01f,
    6.50429055e-02f, 7.53503740e-02f, 8.43760297e-02f, 1.16182163e-01f, -1.47164091e-01f, -7.05614984e-02f, -1.09335929e-01f, -4.88656387e-02f,
    -6.92601427e-02f, 5.38961291e-02f, 1.02278665e-02f, -8.76015127e-02f, 2.58301254e-02f, -3.21894288e-02f, -6.83214217e-02f, -1.63562730e-01f,
    -7.25580007e-02f, -1.01750821e-01f, -3.06014959e-02f, -2.78086066e-02f, -3.21961157e-02f, -6.27815500e-02f, -2.68744417e-02f, 5.69699844e-03f,
    5.16030900e-02f, -2.97397953e-02f, -4.99501228e-02f, -3.45274955e-02f, 7.71325827e-02f, 1.09619722e-01f, -1.08300678e-01f, -6.30302727e-02f,
    8.25617984e-02f, -1.87648818e-01f, 1.45736095e-02f, -2.07332641e-01f, 3.33765373e-02f, 6.50889948e-02f, 3.07557285e-02f, 4.56922390e-02f,
    -4.14957181e-02f, -5.57672493e-02f, -2.34537032e-02f, -1.78861562e-02f, -1.35441661e-01f, -4.10704538e-02f, -2.24755215e-03f, -5.29879853e-02f,
    5.64478897e-02f, -1.04141757e-02f, -9.04671624e-02f, -9.17097852e-02f, -2.18968652e-02f, -5.86293191e-02f, -1.72556248e-02f, -1.23368897e-01f,
    -2.42125560e-02f, -3.75973433e-02f, 7.63121322e-02f, 7.28665590e-02f, -9.42009687e-02f, -4.31050360e-02f, 1.04884341e-01f, -8.67778733e-02f,
    -1.54471532e-01f, -5.90933785e-02f, -4.33534980e-02f, -2.25787889e-02f, 2.94888089e-03f, 5.94630204e-02f, -1.52318068e-02f, -5.01962304e-02f,
    1.05006443e-02f, 2.99225599e-02f, 9.41743702e-03f, -1.13234878e-01f, 5.98535724e-02f, 7.33878911e-02f, 8.79550055e-02f, -8.09947625e-02f,
    1.46046784e-02f, -2.77175792e-02f, -2.82119382e-02f, 1.11475080e-01f, -1.13853537e-01f, -8.30699429e-02f, -9.58466232e-02f, -6.32763356e-02f,
    1.96191110e-02f, -3.00098527e-02f, -6.65729791e-02f, 4.91319373e-02f, 3.21797431e-02f, -4.35474403e-02f, -1.17169404e-02f, -5.26895784e-02f,
    1.52762132e-02f, 1.43327955e-02f, 2.74450071e-02f, 1.99510809e-02f, -9.30283591e-02f, -5.92956655e-02f, 2.44217440e-02f, -1.18281558e-01f,
    7.24083334e-02f, 9.87314153e-03f, 2.25092471e-02f, -6.54293150e-02f, 8.64241738e-03f, 4.41458747e-02f, -8.18463787e-02f, -3.15536521e-02f,
    2.50785034e-02f, -1.13570586e-01f, -6.01666234e-02f, -9.61454213e-02f, -1.72023885e-02f, 5.14416099e-02f, 8.17549452e-02f, -2.25653313e-02f,
    -7.29727373e-02f, 3.12689394e-02f, 6.34907559e-02f, -1.28817968e-02f, -8.60425159e-02f, -1.56556498e-02f, -8.81861895e-02f, -1.03408210e-01f,
    6.50950372e-02f, 8.87447316e-03f, -1.27089992e-01f, 1.41985184e-02f, -2.35472992e-02f, -1.38221890e-01f, -2.26274375e-02f, -3.04399454e-03f,
    1.28613440e-02f, 3.63567360e-02f, 2.76532322e-02f, 1.01014264e-01f, -1.44264102e-01f, -2.67568473e-02f, 7.81950504e-02f, -9.37452689e-02f,
    -8.97753611e-02f, -4.37940173e-02f, 3.40529419e-02f, -1.34951174e-01f, 2.43803672e-02f, -6.44815201e-03f, 1.05826613e-02f, -1.79637782e-02f,
    -6.74277619e-02f, 2.68033501e-02f, 5.61739318e-02f, 3.03692501e-02f, -2.31373515e-02f, 6.02992885e-02f, 1.43217951e-01f, -5.16929887e-02f,
    2.53294203e-02f, 3.51677276e-03f, -1.02734916e-01f, 7.55990148e-02f, -1.91829935e-01f, -6.59681559e-02f, -4.59043905e-02f, -4.66057323e-02f,
    5.32485964e-03f, 6.49407506e-03f, -1.00869812e-01f, -6.24918230e-02f, 6.99319690e-02f, -1.35583133e-01f, 1.35604767e-02f, 1.08170300e-03f,
    1.50351590e-02f, -5.97692095e-02f, 3.27933468e-02f, -1.93677507e-02f, -7.79024884e-02f, 2.23833360e-02f, 5.77738881e-03f, -1.20899945e-01f,
    1.43884132e-02f, 3.78301367e-02f, -7.22245350e-02f, 3.61664146e-02f, 8.38926584e-02f, 1.01044096e-01f, -1.04955807e-01f, -1.02930209e-02f,
    -4.01257910e-02f, -1.13059968e-01f, 2.00617034e-02f, 2.08672080e-02f, -1.82299167e-02f, 2.34622937e-02f, 8.58050585e-02f, -2.17514299e-03f,
    -4.58742082e-02f, -1.80426184e-02f, -1.17209731e-02f, -1.01383656e-01f, 9.26565006e-02f, -4.96778898e-02f, 1.29601201e-02f, 2.41064597e-02f,
    1.42356167e-02f, 1.90676339e-02f, -1.51817143e-01f, -4.83241417e-02f, 4.13895771e-02f, -7.30928332e-02f, 7.30589181e-02f, 9.22818854e-02f,
    9.11366753e-03f, 5.07518053e-02f, -3.14511894e-03f, -2.47368291e-02f, -1.66919567e-02f, -1.51740551e-01f, 8.06723014e-02f, -8.96673873e-02f,
    -1.18839704e-01f, -1.64627105e-01f, 6.14507459e-02f, 6.26938371e-03f, 9.47050937e-03f, -4.17885035e-02f, -1.46677135e-03f, -4.15591002e-02f,
    -1.69711024e-01f, -4.15243581e-02f, 4.68379185e-02f, 1.18329249e-01f, -7.35919271e-03f, 2.27903612e-02f, 2.05774605e-01f, 1.68164819e-02f,
    8.17582197e-03f, -5.63081838e-02f, -2.00215474e-01f, 6.60053268e-02f, -1.24270253e-01f, 2.90186089e-02f, 4.48696204e-02f, 1.64637081e-02f,
    3.73739786e-02f, 7.68581331e-02f, -1.19936332e-01f, -2.10678037e-02f, 4.86827409e-03f, -5.90353943e-02f, 4.99938894e-03f, -3.35403085e-02f,
    -1.32759120e-02f, 1.19365938e-01f, 1.10634997e-01f, 2.29087844e-02f, -3.72171141e-02f, 2.37061102e-02f, 4.93017547e-02f, -1.19201615e-01f,
    3.44563313e-02f, -2.22929642e-02f, -1.10767074e-02f, -6.65182807e-03f, -2.78025698e-02f, 6.48113340e-02f, -1.37601912e-01f, -8.99238884e-02f,
    6.27394617e-02f, -4.95963171e-02f, -3.67097221e-02f, -1.05722256e-01f, 1.99446175e-03f, 1.58905968e-01f, -4.77640368e-02f, 1.10235987e-02f,
    -2.83955671e-02f, -1.49564613e-02f, -3.45127396e-02f, -6.55059963e-02f, 7.86764249e-02f, -1.34898230e-01f, 3.75764295e-02f, 8.29676464e-02f,
    9.60365497e-03f, 5.98373748e-02f, -7.66427368e-02f, -2.08601132e-02f, -6.23037592e-02f, -5.43235019e-02f, -4.88433521e-03f, -7.41627291e-02f,
    -8.18610042e-02f, 5.39918281e-02f, 5.35273887e-02f, 1.14407036e-02f, 1.48635404e-02f, -6.99703172e-02f, 3.27666067e-02f, -5.67785725e-02f,
    -1.71806626e-02f, -2.09482715e-01f, 1.19137384e-01f, -5.93170561e-02f, -1.54704414e-02f, -2.87902094e-02f, 5.31590097e-02f, 3.14017595e-03f,
    -8.27703923e-02f, -1.21549647e-02f, 5.75984903e-02f, -3.36659066e-02f, 2.25209277e-02f, -3.92872915e-02f, 1.27417848e-01f, 1.26665244e-02f,
    -5.87467775e-02f, -9.58480611e-02f, -1.47058785e-01f, 8.52582157e-02f, -1.29272446e-01f, 4.93460298e-02f, 6.16085976e-02f, 8.57791156e-02f,
    3.13568637e-02f, 5.08747883e-02f, 5.23207784e-02f, -7.61530995e-02f, 6.53900430e-02f, -1.30336598e-01f, 6.61649778e-02f, -1.16643183e-01f,
    -1.66987125e-02f, -2.34843642e-02f, 7.94141218e-02f, 4.53763902e-02f, -6.77639768e-02f, 6.97039738e-02f, 7.25801066e-02f, -1.32500842e-01f,
    4.25059870e-02f, -9.82683152e-02f, 1.89953353e-02f, 5.66554964e-02f, 5.76365851e-02f, -1.08794905e-02f, -8.53296891e-02f, 1.54831409e-02f,
    -2.64348108e-02f, -1.41170546e-01f, -3.59087065e-02f, -6.38465136e-02f, 5.50920004e-03f, -1.80236474e-02f, 2.49977671e-02f, -4.13811207e-02f,
    7.03415484e-04f, 5.72184771e-02f, 9.27185640e-02f, -8.72761607e-02f, 8.22005123e-02f, -8.31675231e-02f, 6.00916846e-03f, 2.79822517e-02f,
    2.55928040e-02f, 1.59164201e-02f, 2.94044353e-02f, -1.96155626e-02f, 3.70944217e-02f, -8.78508538e-02f, -9.68393032e-03f, -6.91357478e-02f,
    -4.14778851e-02f, 8.96495655e-02f, -5.01002148e-02f, 3.18095312e-02f, 1.57566573e-02f, 2.53295470e-02f, 8.46875533e-02f, -1.65990785e-01f,
    -5.90799265e-02f, -2.58956879e-01f, 1.04004353e-01f, -8.72886702e-02f, 5.94296353e-03f, -2.79586576e-03f, -4.38524969e-03f, 1.84387788e-02f,
    -4.85481583e-02f, -3.42659503e-02f, -3.43505666e-03f, -5.53665636e-03f, 1.13536052e-01f, 8.66283923e-02f, 7.40239620e-02f, -6.72406331e-02f,
    9.82392393e-03f, 5.56480326e-02f, -2.43575200e-01f, 7.53649250e-02f, -2.06358030e-01f, 4.12595971e-03f, -4.52644341e-02f, -3.72396447e-02f,
    -2.38319635e-02f, 1.40225366e-02f, 3.09820771e-02f, -4.47860807e-02f, 5.74154034e-03f, -7.53122345e-02f, 1.54240588e-02f, -2.46116489e-01f,
    -1.70377586e-02f, 4.78953980e-02f, -4.36228923e-02f, 4.46414128e-02f, -8.95261858e-03f, 7.11670518e-02f, 9.88511369e-03f, -1.57358691e-01f,
    6.45905361e-02f, -1.03121281e-01f, -8.09312984e-02f, -9.28063914e-02f, 4.10718694e-02f, 2.19589621e-02f, -6.98753297e-02f, 7.40424246e-02f,
    3.25444341e-02f, -5.23320660e-02f, 2.30592564e-02f, -9.83781517e-02f, 3.41507792e-02f, 2.46144794e-02f, -8.69944284e-04f, -6.91155344e-02f,
    1.38768598e-01f, 1.12952001e-01f, 1.63617656e-01f, -5.72511367e-02f, 4.07877788e-02f, -4.47929166e-02f, -4.96956296e-02f, 4.13613506e-02f,
    8.63402560e-02f, 8.59910920e-02f, -6.16350211e-02f, -1.97632797e-02f, -8.19452631e-04f, -1.55711368e-01f, 4.36666682e-02f, -1.10040613e-01f,
    -3.61303091e-02f, 1.41181489e-02f, -1.01428874e-01f, -1.52697014e-02f, 8.43612328e-02f, -3.89599577e-02f, 1.11848980e-01f, -1.08475782e-01f,
    -1.68336198e-01f, -1.21948719e-01f, -2.38384411e-04f, 3.33465193e-03f, 1.48469759e-02f, -7.73748755e-03f, 3.25281806e-02f, 5.17233871e-02f,
    2.51322910e-02f, -6.05101436e-02f, -1.56820824e-04f, -3.94940898e-02f, 9.25342664e-02f, 1.97517529e-01f, -1.21112512e-02f, -9.16436240e-02f,
    -3.84881459e-02f, -2.03336738e-02f, -2.40584180e-01f, 6.67732656e-02f, -1.33900926e-01f, -1.87685732e-02f, -3.40343378e-02f, -3.41814198e-02f,
    -3.52279954e-02f, -1.49202961e-02f, -6.32419670e-03f, 1.25147952e-02f, 1.18600681e-01f, -1.66859329e-01f, -1.14406692e-02f, -8.54991972e-02f,
    -9.08149630e-02f, 2.65241452e-02f, -9.78814438e-02f, -4.21386883e-02f, -6.77306158e-03f, -3.20954882e-02f, 1.31477416e-01f, -1.79866135e-01f,
    3.79383266e-02f, -2.85928622e-02f, -3.45158353e-02f, 7.02271331e-03f, -7.16251228e-03f, 6.94701225e-02f, -2.10545696e-02f, 6.17266744e-02f,
    1.44068494e-01f, -1.33059934e-01f, -1.54735371e-02f, -9.86312106e-02f, -4.01203893e-02f, 4.78571318e-02f, -9.81691629e-02f, -1.55864626e-01f,
    6.47526234e-02f, 9.62920263e-02f, 5.92662282e-02f, -3.95073406e-02f, 2.82199471e-05f, -1.07571028e-01f, -8.44879076e-02f, -3.26397009e-02f,
    4.09448035e-02f, 3.85169908e-02f, -5.46260029e-02f, 7.73030743e-02f, 1.43906116e-01f, -1.17378488e-01f, -9.50941350e-03f, -1.34144723e-01f,
    -3.22802737e-02f, 8.42726231e-02f, -9.32310373e-02f, -6.84449002e-02f, 1.23411700e-01f, 1.08122993e-02f, 1.45912126e-01f, -4.03955840e-02f,
    -1.06091294e-02f, -1.15243934e-01f, 4.83221747e-02f, 4.63099368e-02f, 1.96258537e-02f, -6.29863888e-02f, -2.17509419e-02f, 5.91054000e-02f,
    1.05396867e-01f, -1.80129290e-01f, 1.26166707e-02f, -4.16906700e-02f, 1.18857026e-01f, 1.99326992e-01f, 2.20535677e-02f, -8.33382979e-02f,
    4.48270850e-02f, 7.57812485e-02f, -1.66911870e-01f, 1.62852243e-01f, -5.80484867e-02f, -3.30048278e-02f, -1.10542059e-01f, 1.42197311e-02f,
    -1.44953847e-01f, -5.70702367e-03f, -2.23238710e-02f, 7.94850141e-02f, 1.37171328e-01f, -1.95627004e-01f, -9.72255617e-02f, -1.20683253e-01f,
    -8.95367041e-02f, -1.63109619e-02f, -2.03239382e-03f, -3.53332609e-02f, 1.17912069e-01f, 9.29003395e-03f, 1.13748275e-01f, -7.29094222e-02f,
    -2.75786649e-02f, -1.12488545e-01f, -7.69797489e-02f, 6.28123665e-03f, -1.21029720e-01f, -1.14485271e-01f, 4.89171445e-02f, -3.05365003e-03f,
    1.49686843e-01f, -1.05514593e-01f, -6.57793600e-03f, -1.22060724e-01f, -7.88884237e-02f, 1.51041716e-01f, -3.38853747e-02f, -1.41688302e-01f,
    3.33358273e-02f, 6.54521585e-02f, 2.84672417e-02f, -6.07950874e-02f, -1.22656293e-01f, -7.20988959e-02f, -6.07661791e-02f, 3.38165537e-02f,
    -4.64288294e-02f, 3.62559967e-02f, 7.78687224e-02f, -1.98366437e-02f, 6.99794814e-02f, -1.05720043e-01f, -7.66253620e-02f, -1.55543536e-01f,
    -5.07382564e-02f, -1.01253837e-02f, -7.99417794e-02f, -6.69788122e-02f, 9.84509364e-02f, -1.74906887e-02f, 1.64326072e-01f, 5.62822074e-02f,
    -8.01078752e-02f, -1.10492699e-01f, -2.10905299e-02f, 5.81551865e-02f, 2.73215510e-02f, -4.89324629e-02f, 6.30774349e-02f, 1.13681518e-02f,
    2.66957656e-02f, -2.44549409e-01f, -8.07816163e-03f, -5.62741198e-02f, -8.72708019e-03f, 1.11237146e-01f, 2.25072680e-03f, -1.05457701e-01f,
    7.96067864e-02f, -6.34819921e-03f, -9.94909853e-02f, 1.43907472e-01f, -1.81344405e-01f, 1.55597879e-02f, -8.00186545e-02f, -1.27516389e-01f,
    -1.54698625e-01f, -8.46597329e-02f, 9.46024060e-02f, 6.20281184e-03f, 1.45773679e-01f, -8.33851099e-02f, -4.02577110e-02f, -1.74558714e-01f,
    -5.13504222e-02f, -7.65552092e-03f, -1.52186170e-01f, -1.46240801e-01f, 5.51133193e-02f, 4.92010750e-02f, 4.94161583e-02f, -9.27373618e-02f,
    -1.39725089e-01f, -1.44111499e-01f, -7.64769688e-02f, -2.94337701e-02f, -1.29943013e-01f, -1.24228172e-01f, 9.42239016e-02f, 5.51410951e-02f,
    6.77769557e-02f, -1.60573944e-01f, -7.86342844e-02f, -1.12526692e-01f, 1.98889160e-04f, 1.46746293e-01f, -4.48943339e-02f, -8.24269056e-02f,
    1.25337467e-01f, 2.74851546e-02f, 1.06307894e-01f, 7.08110705e-02f, -1.20024316e-01f, -5.04078381e-02f, -6.29286170e-02f, 5.34402169e-02f,
    -7.50871375e-02f, -1.13264091e-01f, 5.97889014e-02f, 6.71846122e-02f, 1.47250116e-01f, -1.91170827e-01f, -2.01582611e-02f, -1.04431637e-01f,
    -1.54773891e-03f, 1.89653877e-02f, 6.38997741e-03f, -4.95687611e-02f, -3.70307714e-02f, -5.13632176e-03f, 3.31750177e-02f, 6.73720846e-03f,
    -9.86806378e-02f, 1.84495505e-02f, -4.11481932e-02f, -7.44627882e-03f, -7.54423067e-02f, -3.47994529e-02f, 8.40060413e-02f, 7.27347881e-02f,
    3.18627730e-02f, -2.18040600e-01f, -8.54557976e-02f, -1.84128985e-01f, 5.71329780e-02f, 1.38106927e-01f, 5.38054258e-02f, -3.75158601e-02f,
    8.51646662e-02f, -3.17072147e-03f, 2.67500747e-02f, 7.16613531e-02f, -1.49850205e-01f, -6.11446872e-02f, -1.12808026e-01f, -1.02205925e-01f,
    -7.04022795e-02f, -2.46587887e-01f, 1.43284416e-02f, -2.95303371e-02f, 1.45985797e-01f, -8.21866393e-02f, -7.12584555e-02f, -7.45053515e-02f,
    -1.40618086e-01f, -1.56509206e-01f, -2.90173087e-02f, -9.64282006e-02f, -5.81951290e-02f, 7.92036653e-02f, 2.31073471e-03f, -2.48616766e-02f,
    -3.42918048e-03f, -9.10040289e-02f, -5.81236556e-02f, -1.83770120e-01f, -1.42276227e-01f, -1.63067758e-01f, 3.60112041e-02f, 3.81387770e-02f,
    5.59329577e-02f, -4.43703085e-02f, 2.04159245e-02f, -1.61534891e-01f, -7.51187429e-02f, 1.25414684e-01f, -4.65685464e-02f, -1.16961114e-01f,
    -1.02941168e-03f, -1.40765274e-03f, -2.79291794e-02f, 1.76762212e-02f, -1.24823764e-01f, -6.83171600e-02f, -6.58004433e-02f, -1.59885675e-01f,
    -9.16594192e-02f, -7.83314183e-02f, 9.74528939e-02f, 3.24227922e-02f, 1.35738580e-02f, -1.10246345e-01f, -5.75839654e-02f, -1.88907653e-01f,
    -7.02402070e-02f, 1.48769334e-01f, -5.98863773e-02f, -4.39142622e-02f, 5.95395416e-02f, -2.74499953e-02f, -1.20265819e-02f, 4.28113453e-02f,
    -1.33831844e-01f, -8.61573294e-02f, -1.28603369e-01f, -1.61443889e-01f, -1.36394680e-01f, -1.25557959e-01f, 7.23194778e-02f, 5.80424108e-02f,
    4.51217555e-02f, -8.79003778e-02f, -9.27381031e-03f, -1.05532348e-01f, -3.28091867e-02f, 2.15395123e-01f, -4.71863337e-02f, -3.86344418e-02f,
    7.99453035e-02f, -1.32652074e-02f, -4.07768972e-02f, 5.71400709e-02f, -1.77728683e-01f, 3.98485363e-02f, -7.21800327e-02f, -4.10733148e-02f,
    3.74865793e-02f, -7.22956434e-02f, 4.73341048e-02f, 9.30890441e-03f, 2.98866648e-02f, 2.07434241e-02f, 9.47300252e-03f, 3.76086496e-02f,
    -4.11096141e-02f, -1.33504113e-02f, -6.93033636e-02f, -1.53852133e-02f, 2.81659849e-02f, -3.75455581e-02f, -5.59973763e-03f, 3.79112177e-02f,
    -5.31956144e-02f, -1.54608101e-01f, -2.53666602e-02f, -2.14350354e-02f, -2.50267163e-02f, 7.40360618e-02f, -8.18095058e-02f, -4.85366546e-02f,
    -8.18918645e-02f, 6.00030944e-02f, -9.66531485e-02f, -2.21432541e-02f, -3.69668342e-02f, 1.26477003e-01f, -6.70680553e-02f, -4.61403355e-02f,
    -3.32120992e-03f, -2.12300178e-02f, -5.45957424e-02f, 9.26862657e-02f, -1.99484244e-01f, 3.50314612e-03f, -2.73700003e-02f, 5.82152233e-02f,
    4.53098826e-02f, 1.04249846e-02f, 5.41812927e-02f, -9.03003961e-02f, -1.24807447e-01f, 1.07918799e-01f, -1.33452222e-01f, -1.20059900e-01f,
    1.60800237e-02f, 1.12674333e-01f, 5.55935223e-03f, 3.24497721e-03f, -1.45943090e-02f, -7.16247363e-03f, -5.25784083e-02f, 4.65948917e-02f,
    -1.29520267e-01f, -1.06733330e-01f, -5.74340783e-02f, 2.57030036e-02f, -3.10313012e-02f, 5.25980629e-02f, -2.84430664e-02f, -1.17716156e-01f,
    -9.30134580e-02f, 1.68469362e-02f, -6.20052107e-02f, -1.20303862e-01f, -1.12977716e-04f, 1.81581721e-01f, -5.81342392e-02f, -5.85954003e-02f,
    4.26798500e-02f, -4.61805910e-02f, -4.49227579e-02f, 8.50773826e-02f, -1.04444206e-01f, -6.26684399e-03f, -2.95217112e-02f, 7.81622902e-02f,
    -4.52910103e-02f, 2.05241237e-02f, 9.98974144e-02f, -1.04936816e-01f, -5.28698154e-02f, -9.72385239e-03f, -5.06342873e-02f, -6.67814985e-02f,
    -3.17014195e-02f, 7.54498467e-02f, 5.74509017e-02f, 7.56152645e-02f, 1.16553292e-01f, -1.57443851e-01f, -1.93451683e-03f, -3.50298733e-03f,
    -3.75243612e-02f, -1.82558686e-01f, -2.62125004e-02f, 3.21562141e-02f, 2.72836424e-02f, 3.14244740e-02f, -4.16905954e-02f, -6.29622340e-02f,
    3.63268470e-03f, -6.66449359e-03f, -1.03635572e-01f, -1.82100430e-01f, -3.99897769e-02f, 1.90774456e-01f, 2.02070139e-02f, 4.30277623e-02f,
    4.01937440e-02f, -1.04899086e-01f, 1.79138239e-02f, 3.97736952e-02f, -1.14898771e-01f, -1.45366207e-01f, -1.79737303e-02f, -5.24130799e-02f,
    4.07664552e-02f, 1.45671278e-01f, 1.36377534e-03f, -1.11509092e-01f, -1.00198820e-01f, 2.55856197e-03f, -6.43450990e-02f, -2.75643587e-01f,
    -8.12256187e-02f, 4.95035946e-02f, -6.33771764e-03f, 7.65545890e-02f, 8.99556875e-02f, -2.63246000e-02f, -3.75570618e-02f, 3.02427728e-02f,
    -1.34151086e-01f, -1.83341220e-01f, -9.18477476e-02f, 3.50314518e-03f, 6.75930129e-03f, 1.42423436e-02f, 1.65611096e-02f, -7.31210783e-02f,
    -2.47402862e-02f, 7.24637210e-02f, -1.53274462e-02f, -2.22932249e-01f, 3.89923155e-02f, 1.04629561e-01f, -6.44701719e-02f, 4.74039726e-02f,
    3.72526199e-02f, 4.01279256e-02f, 1.35897398e-02f, 1.26443669e-01f, -1.26322538e-01f, -7.83977434e-02f, -6.15035743e-02f, -7.80841941e-03f,
    5.45033552e-02f, 9.81696621e-02f, 3.26790959e-02f, -1.25303060e-01f, -4.00159284e-02f, 1.06022879e-01f, -9.27885845e-02f, -1.19552188e-01f,
    3.26201022e-02f, -4.80098538e-02f, -1.90562233e-02f, 7.66515881e-02f, 6.79787844e-02f, -1.49145415e-02f, -6.70346245e-02f, 1.04620673e-01f,
    -9.22915805e-03f, -6.25993907e-02f, -8.75132084e-02f, -4.96278927e-02f, 2.01109685e-02f, 5.45694344e-02f, 5.98484240e-02f, -1.15649201e-01f,
    -8.81372169e-02f, -2.64229644e-02f, -5.72926439e-02f, -1.10398628e-01f, -3.47107463e-02f, 5.13018817e-02f, 5.31699089e-03f, -9.73270740e-03f,
    -2.99233664e-03f, 1.21201882e-02f, -2.71913484e-02f, 2.70286966e-02f, -7.96723589e-02f, -1.08579613e-01f, -3.88189107e-02f, -1.78806279e-02f,
    5.22762351e-02f, 9.26140770e-02f, 1.07380874e-01f, -8.98318961e-02f, -3.16547677e-02f, 7.55523145e-02f, 3.31839286e-02f, -9.62220654e-02f,
    -6.65978119e-02f, -7.81888142e-03f, 2.89743114e-02f, -9.63591877e-03f, 6.29865751e-02f, -3.18959430e-02f, 8.33275691e-02f, 8.68114457e-02f,
    -7.28369728e-02f, -4.29372787e-02f, 4.03909683e-02f, -7.72911534e-02f, -5.78646315e-03f, 4.59204353e-02f, -2.34277789e-02f, -5.57153411e-02f,
    -3.04233767e-02f, 6.16423897e-02f, 1.94848683e-02f, -8.51759911e-02f, -3.86236310e-02f, 1.86557591e-01f, 2.56499331e-02f, 1.10205069e-01f,
    -2.38491558e-02f, -1.02354646e-01f, -8.03150013e-02f, 1.62023857e-01f, -2.23199636e-01f, -6.56453744e-02f, -9.62197557e-02f, -2.17852965e-02f,
    1.66572910e-02f, 5.00618247e-03f, 3.28222513e-02f, -1.06266700e-02f, -4.73287031e-02f, 2.68700942e-02f, -5.11574112e-02f, -1.21520832e-01f,
    1.71385743e-02f, -5.37073873e-02f, -2.24817414e-02f, -8.81826598e-03f, 4.18624692e-02f, 7.27074174e-03f, -5.53678349e-03f, 3.87045853e-02f,
    4.84258048e-02f, -1.86817572e-02f, -5.76523058e-02f, -1.27471298e-01f, 1.51850432e-02f, -1.92919392e-02f, 3.90214249e-02f, 2.04200973e-03f,
    -4.59002145e-02f, -2.63956860e-02f, 3.98633778e-02f, -3.21096368e-02f, -1.97553728e-02f, -2.59314161e-02f, 1.05390251e-02f, -3.63026746e-02f,
    3.32650431e-02f, -3.41222971e-04f, 2.24497113e-02f, 6.32160082e-02f, 3.08944155e-02f, -8.53972733e-02f, -2.89313868e-02f, -1.19609445e-01f,
    -1.43714100e-02f, 6.04548641e-02f, -2.76385434e-03f, 2.58471398e-03f, -9.57083628e-02f, 3.27513032e-02f, -5.81493303e-02f, -6.11146055e-02f,
    -2.59419177e-02f, -7.55829215e-02f, -8.38433579e-03f, 2.79284548e-02f, 2.95013878e-02f, 5.84120415e-02f, 7.88141936e-02f, 8.96924734e-02f,
    -4.81469259e-02f, -9.70877632e-02f, -2.89772209e-02f, -7.71258324e-02f, -1.99363288e-02f, 3.21807303e-02f, -3.07568796e-02f, -3.01089268e-02f,
    -5.93177192e-02f, 7.10262284e-02f, 2.79224403e-02f, 1.64226908e-03f, -1.40736669e-01f, 1.35129660e-01f, 1.40127793e-01f, 1.31835669e-01f,
    -1.82208270e-02f, -2.86411583e-01f, -1.63545117e-01f, 2.03178078e-01f, -1.98407069e-01f, -7.64359236e-02f, -1.60511006e-02f, -4.78210226e-02f,
    -3.35085504e-02f, 5.88968098e-02f, -3.17580742e-03f, 2.55657081e-02f, -7.61474892e-02f, 7.67064020e-02f, 7.29064411e-03f, -3.88455316e-02f,
    -2.41619535e-02f, -1.06432937e-01f, 5.16556688e-02f, 6.03769645e-02f, 3.81879546e-02f, 2.27380972e-02f, -5.56700453e-02f, 7.28237107e-02f,
    -6.14669435e-02f, -1.78500731e-02f, 1.52052594e-02f, -4.00477573e-02f, 2.28887927e-02f, 4.14709095e-03f, -3.55822295e-02f, 5.70271797e-02f,
    -6.68270588e-02f, -8.81230757e-02f, -2.82110721e-02f, 5.05176559e-02f, -2.91796997e-02f, -3.67056169e-02f, 7.24817207e-03f, -1.38380015e-02f,
    3.55901010e-02f, 4.27216589e-02f, -3.18285376e-02f, 1.52931958e-02f, -8.05048645e-03f, -3.27500422e-03f, -2.82871090e-02f, -3.03536523e-02f,
    2.47113369e-02f, 2.77642664e-02f, 5.09300120e-02f, 1.65744906e-03f, -9.27384347e-02f, 1.13976464e-01f, 1.50080509e-02f, 3.59773040e-02f,
    -4.30129245e-02f, -3.19562331e-02f, 6.99500814e-02f, 1.65805756e-03f, 1.25946984e-01f, 2.08140574e-02f, -2.54268553e-02f, 1.97057575e-02f,
    -8.14214721e-02f, -1.39950320e-01f, -9.69452262e-02f, -1.23427168e-01f, 2.03401931e-02f, 7.35128671e-02f, -5.31152706e-04f, -3.63022052e-02f,
    -1.07462704e-01f, 1.02429405e-01f, -2.97486559e-02f, -1.92688475e-03f, -1.59047380e-01f, -4.08556163e-02f, 1.87435403e-01f, 2.66406149e-01f,
    -6.94559887e-03f, -2.60534793e-01f, -2.80300528e-01f, 2.14495242e-01f, -2.26894841e-01f, -1.74565926e-01f, -3.92598733e-02f, -1.20387869e-02f,
    4.14683707e-02f, 2.55459100e-02f, -5.49982339e-02f, 2.89680716e-02f, -5.19487150e-02f, 1.19928713e-03f, 2.93479324e-03f, 7.25771580e-03f,
    -2.69954856e-02f, -9.82287303e-02f, 6.73581213e-02f, 1.29756322e-02f, -3.76288369e-02f, 2.31270529e-02f, -6.22154325e-02f, 1.36761703e-02f,
    -2.48247404e-02f, 1.69732962e-02f, 1.01048946e-02f, -8.74495730e-02f, 3.15173119e-02f, 9.42342952e-02f, -6.32743761e-02f, -1.49193574e-02f,
    1.20878145e-02f, -7.15859160e-02f, 9.06237289e-02f, 3.20642591e-02f, -6.17019907e-02f, 1.49624664e-02f, -4.03497890e-02f, -6.44409582e-02f,
    1.41212447e-02f, 1.85282957e-02f, -2.62775254e-02f, 8.91229659e-02f, -1.78674515e-03f, 1.28383387e-03f, 2.46303026e-02f, -9.57595631e-02f,
    -3.61052975e-02f, 1.34208119e-02f, -3.11384946e-02f, 7.83261955e-02f, -1.07402466e-01f, -3.65815759e-02f, -9.00992472e-03f, -2.74064261e-02f,
    -1.10145379e-02f, 9.81549695e-02f, -9.51188710e-03f, -1.04220994e-02f, 1.04972059e-02f, -2.74172500e-02f, -2.38439683e-02f, -1.05001070e-02f,
    6.64845854e-02f, -1.80355031e-02f, -1.80184003e-02f, -1.65397391e-01f, -3.28680873e-02f, 7.65006840e-02f, -6.53824210e-02f, -1.15851881e-02f,
    -1.64139509e-01f, 9.31579694e-02f, 8.35386384e-03f, 1.07460171e-01f, -2.23463684e-01f, -2.29768261e-01f, 1.67797834e-01f, 3.09572250e-01f,
    -1.27103806e-01f, -1.85626611e-01f, -3.99068028e-01f, 1.83738410e-01f, 5.21799326e-02f, 6.06900491e-02f, 2.28842292e-02f, 1.47536546e-02f,
    -1.13044977e-02f, 5.73162287e-02f, -6.62932023e-02f, -9.24460739e-02f, -1.08665064e-01f, -7.39350216e-03f, -1.51806017e-02f, 7.43303150e-02f,
    -4.59702648e-02f, -1.93963442e-02f, 2.76827328e-02f, 1.09067887e-01f, -5.84032610e-02f, -7.64876753e-02f, -5.35475649e-02f, -8.65396410e-02f,
    2.23825146e-02f, 4.05509956e-02f, -3.60681638e-02f, -5.37693799e-02f, 7.13889524e-02f, 2.18202043e-02f, -8.91952738e-02f, -6.80468678e-02f,
    3.38688679e-02f, -5.58054969e-02f, 1.77340175e-03f, 1.92395598e-02f, 3.82432528e-02f, -1.83112640e-02f, -1.56414002e-01f, -2.82534938e-02f,
    8.69004130e-02f, 3.02289589e-03f, 8.07260200e-02f, -3.46753970e-02f, 1.17081208e-02f, 2.93322764e-02f, 5.45647182e-02f, 1.53490854e-02f,
    5.34868501e-02f, 6.48959577e-02f, -1.02187529e-01f, 5.02232090e-02f, -1.19942106e-01f, -4.90521677e-02f, 6.72111884e-02f, 7.52599463e-02f,
    6.64911717e-02f, 3.49006355e-02f, 4.58444506e-02f, 4.00378779e-02f, 2.56589688e-02f, -2.69307233e-02f, -1.04677692e-01f, -1.18930586e-01f,
    4.85347137e-02f, -9.05213133e-03f, -1.45424297e-02f, -2.43297637e-01f, 2.87611354e-02f, 1.10137966e-02f, -2.32491389e-01f, -9.71903950e-02f,
    -1.21056169e-01f, 3.12087301e-04f, 8.46055374e-02f, 1.75574884e-01f, -1.36226356e-01f, -3.29079777e-01f, 1.74404979e-01f, 1.06323190e-01f,
    -3.10541570e-01f, -1.10537127e-01f, -3.85995716e-01f, 1.92998990e-01f, 1.17409796e-01f, 1.80391669e-01f, 5.53056411e-02f, 4.97553758e-02f,
    2.72834487e-02f, 3.24884132e-02f, -1.05738461e-01f, -4.45552692e-02f, -1.03894457e-01f, -7.86267146e-02f, 1.41217252e-02f, 2.98767425e-02f,
    8.93686637e-02f, -9.69939530e-02f, -3.49766873e-02f, 3.71226408e-02f, -8.59751645e-03f, -6.75272197e-02f, -8.16503689e-02f, -1.12182856e-01f,
    5.21244220e-02f, 6.97364733e-02f, 2.49687694e-02f, -1.97185520e-02f, 6.11635149e-02f, 9.29017738e-02f, 1.39649259e-02f, -1.85354333e-02f,
    3.12275197e-02f, -1.10209651e-01f, 4.61167768e-02f, 5.69839329e-02f, 4.84235100e-02f, -2.26978189e-03f, -1.54636264e-01f, -1.15778029e-01f,
    8.80314559e-02f, -3.51355188e-02f, 6.20520413e-02f, 4.79945652e-02f, 6.68731472e-03f, 4.65620644e-02f, 1.92511119e-02f, -1.82061493e-02f,
    8.17952082e-02f, 3.72751020e-02f, 1.22529478e-03f, -4.93197925e-02f, -6.14295364e-04f, -7.92382583e-02f, 6.69946149e-02f, 6.15448356e-02f,
    3.69534865e-02f, -1.03360146e-01f, 3.49932313e-02f, -5.89880906e-02f, 1.16556048e-01f, -1.27431415e-02f, -6.89896643e-02f, -9.06770751e-02f,
    1.22346684e-01f, -1.47993369e-02f, 5.71012357e-03f, -3.65828693e-01f, -3.02667432e-02f, 3.18138674e-02f, -1.50970995e-01f, -3.27326618e-02f,
    -1.49769142e-01f, 4.53689210e-02f, 1.00201733e-01f, 1.63996086e-01f, -1.94186643e-02f, -3.71577591e-01f, 8.61698017e-02f, -9.46867242e-02f,
    -3.07533503e-01f, 1.03241049e-01f, -2.46424049e-01f, 2.21454993e-01f, 1.04933962e-01f, 1.82610229e-01f, 7.89147690e-02f, -1.15698479e-01f,
    6.39408007e-02f, 7.42466822e-02f, 2.09324043e-02f, 2.83983238e-02f, 1.32552087e-02f, -1.03293493e-01f, 2.34396048e-02f, 1.35589233e-02f,
    8.39855820e-02f, -1.88543499e-02f, -2.96056587e-02f, -2.70984625e-03f, -7.22829700e-02f, -4.52397875e-02f, -4.26636599e-02f, -3.66059295e-03f,
    7.80977160e-02f, -2.65410561e-02f, 3.90898213e-02f, 6.74312282e-03f, -4.03399728e-02f, 2.45689489e-02f, -6.15219772e-02f, 1.18634313e-01f,
    -1.97056681e-02f, -9.69871208e-02f, -2.45645307e-02f, -3.93633246e-02f, 5.27790152e-02f, 1.23026319e-01f, -2.55298644e-01f, -1.60335883e-01f,
    1.76869303e-01f, 3.10743395e-02f, -6.19495623e-02f, 2.40359455e-02f, -2.35092379e-02f, -4.21750881e-02f, 1.00748579e-03f, 2.00398937e-02f,
    -2.39912271e-02f, 3.46647352e-02f, -3.63472290e-02f, -8.84920359e-03f, -6.56860471e-02f, 2.18025427e-02f, -2.78514437e-02f, 4.50807214e-02f,
    8.54537357e-03f, -7.13366047e-02f, 7.30659142e-02f, 2.35752147e-02f, 3.37742604e-02f, -5.17253466e-02f, -5.92010580e-02f, -1.87527254e-01f,
    1.57030467e-02f, -5.16209416e-02f, 4.81775440e-02f, -2.10122868e-01f, -8.64889920e-02f, -5.36170714e-02f, -1.07532509e-01f, 3.41181867e-02f,
    -1.05952635e-01f, 1.14985831e-01f, 5.60542718e-02f, 1.49847716e-01f, -5.55216596e-02f, -2.46906534e-01f, 1.84447333e-01f, -1.77262336e-01f,
    -1.89349085e-01f, 1.82235613e-01f, -6.89475015e-02f, 4.75070290e-02f, 2.05389597e-02f, 8.82040486e-02f, 3.47055607e-02f, -7.83445016e-02f,
    9.49885845e-02f, 3.60738002e-02f, -5.02488799e-02f, 7.77077451e-02f, 1.11882627e-01f, -4.24300097e-02f, 7.36686289e-02f, -9.16279629e-02f,
    7.57910833e-02f, 1.90480892e-02f, -1.84032694e-02f, 5.63113652e-02f, -3.65814380e-02f, -1.83486249e-02f, -7.68529624e-02f, -1.47251561e-02f,
    7.40420222e-02f, 1.05448300e-02f, 5.55604137e-02f, 6.15245923e-02f, -3.93378623e-02f, 3.09183914e-02f, 2.95292195e-02f, 1.26500502e-01f,
    8.10666904e-02f, -2.81825364e-02f, 7.99605325e-02f, -7.95489997e-02f, -2.53034178e-02f, 1.34568974e-01f, -1.65727392e-01f, -1.38328463e-01f,
    1.21243857e-01f, 1.20100200e-01f, -8.86554345e-02f, 5.56031466e-02f, -2.37126499e-02f, -6.14213608e-02f, 7.20641464e-02f, -3.27489302e-02f,
    6.85300454e-02f, -2.16148738e-02f, -4.62011397e-02f, -2.23188568e-02f, -4.20167148e-02f, -7.76677802e-02f, 2.84045115e-02f, -4.53204401e-02f,
    -8.22975785e-02f, 2.20672600e-02f, 2.64913160e-02f, 2.97492221e-02f, 4.74989414e-02f, -1.91982761e-02f, 4.47453596e-02f, -1.49472520e-01f,
    9.13452059e-02f, -1.98890418e-02f, -2.41053663e-02f, -4.92693856e-02f, -1.64026581e-02f, -3.60938907e-02f, -3.84614170e-02f, 9.08841193e-02f,
    -3.86992246e-02f, 1.43440694e-01f, 1.03676748e-02f, 2.29305066e-02f, -3.72081660e-02f, -2.19516054e-01f, 3.37876566e-02f, -2.28127331e-01f,
    -1.93496838e-01f, 1.17846303e-01f, 2.07884796e-02f, 1.34366751e-01f, 4.98899817e-02f, -5.55814849e-03f, 4.23794007e-03f, -1.43657438e-02f,
    -2.49281973e-02f, -4.02091108e-02f, -2.84691192e-02f, -2.73329187e-02f, 6.02550283e-02f, -9.91582721e-02f, 3.63095067e-02f, -4.00053896e-02f,
    2.38946493e-04f, 3.93811539e-02f, 4.97437380e-02f, -5.64693287e-02f, 6.35683462e-02f, -3.17959562e-02f, 3.44088338e-02f, -1.06989764e-01f,
    -2.09458321e-02f, -1.02852270e-01f, -4.10520732e-02f, 1.86900841e-03f, -9.26672518e-02f, -4.26715650e-02f, 3.44224237e-02f, -2.09438484e-02f,
    -2.78831851e-02f, -3.17624696e-02f, 4.30338114e-04f, -4.44893576e-02f, -3.87508608e-02f, 3.65145095e-02f, -1.18010789e-01f, -1.09832153e-01f,
    7.97457993e-02f, 1.36238649e-01f, -9.84877497e-02f, 3.49247232e-02f, -6.33333400e-02f, -8.28825086e-02f, 6.37207478e-02f, 4.14754786e-02f,
    -5.81223406e-02f, 6.68521002e-02f, 5.42450286e-02f, 1.18348934e-02f, 5.42041622e-02f, -7.24799931e-02f, -3.73839960e-02f, -3.09731048e-02f,
    -3.24121378e-02f, 7.86461011e-02f, -1.91598828e-03f, -1.00465432e-01f, 1.13237806e-01f, -5.27805611e-02f, 1.09690867e-01f, -1.52207643e-01f,
    -1.71330664e-02f, -1.83854237e-01f, -2.53333580e-02f, -9.26855579e-02f, -1.01642013e-01f, -6.04408495e-02f, 5.59012638e-03f, 4.01334763e-02f,
    -2.73565650e-02f, 7.34754875e-02f, 3.49332951e-02f, -4.12026085e-02f, -5.97694777e-02f, -8.44116434e-02f, -5.95444702e-02f, -1.71379119e-01f,
    -4.60470766e-02f, 2.00714082e-01f, 1.16775081e-01f, 1.78675577e-01f, -6.51719868e-02f, -5.48940264e-02f, 3.40102240e-02f, 1.09075077e-01f,
    1.74018461e-02f, -8.29688460e-02f, 5.12919649e-02f, 2.15602480e-02f, 1.54329598e-01f, -2.13191643e-01f, -1.48557229e-02f, -7.06821233e-02f,
    -6.14669546e-03f, -6.09377846e-02f, -4.25843261e-02f, -4.39397693e-02f, 1.69138432e-01f, 7.41496235e-02f, 4.37822454e-02f, -1.04576096e-01f,
    -3.62508148e-02f, -1.94590777e-01f, -1.75984297e-02f, 1.63101144e-02f, -9.26916748e-02f, -1.31242856e-01f, 1.37117222e-01f, 1.17372945e-02f,
    3.22408229e-02f, -9.48802531e-02f, 2.77624410e-02f, -1.26472101e-01f, -4.00870889e-02f, 9.56163649e-03f, -1.39337182e-01f, -1.63814977e-01f,
    1.77192822e-01f, 1.62612990e-01f, -2.81469058e-02f, 3.79726514e-02f, -9.19620215e-04f, -1.17072746e-01f, 1.17409108e-02f, -3.13126892e-02f,
    -4.04099263e-02f, -6.84500188e-02f, 1.10809006e-01f, 6.69274926e-02f, 4.39547785e-02f, -1.24858737e-01f, -1.36868255e-02f, -1.55020818e-01f,
    -1.68635353e-01f, -1.08680278e-02f, -1.74913377e-01f, -1.75495729e-01f, 2.52955761e-02f, 4.13993225e-02f, 9.93480235e-02f, -9.26153883e-02f,
    -1.06854580e-01f, -1.02580950e-01f, 7.36379437e-03f, -9.16173831e-02f, -6.48759753e-02f, -1.14351913e-01f, 9.06332284e-02f, 1.13597952e-01f,
    -8.72280747e-02f, -1.01240210e-01f, 9.24771652e-02f, -9.08849984e-02f, -5.06673753e-03f, 2.74842158e-02f, -1.05849281e-02f, -7.65110403e-02f,
    -3.83949988e-02f, 8.96547437e-02f, 2.30524167e-02f, 1.10645980e-01f, -7.52016604e-02f, -3.06359883e-02f, -1.22079149e-01f, 2.73085404e-02f,
    -9.49785337e-02f, -1.35750800e-01f, 4.87366579e-02f, 1.63297281e-02f, 1.35160238e-01f, -2.12380424e-01f, 2.10138597e-02f, -1.69508308e-01f,
    -2.28194982e-01f, -9.28309560e-02f, -1.18045211e-01f, -8.91345292e-02f, 5.41499108e-02f, 1.44930482e-01f, 9.84861478e-02f, -2.19037801e-01f,
    -8.99302214e-02f, -1.37217969e-01f, -1.77967697e-01f, -9.59611237e-02f, -5.50403707e-02f, -1.26369253e-01f, 4.67226878e-02f, 6.45302385e-02f,
    2.69926712e-02f, -9.77996439e-02f, 6.71710027e-03f, -2.24099338e-01f, -1.15689477e-02f, 8.34166706e-02f, -1.17471674e-02f, -5.85035905e-02f,
    1.28154615e-02f, 2.52300967e-02f, -4.02813777e-03f, -1.33050214e-02f, -1.68038622e-01f, -1.06969044e-01f, -8.64624158e-02f, -9.03162733e-02f,
    -9.86424834e-02f, -9.36833099e-02f, 1.44964010e-01f, 7.27892667e-02f, 4.62318100e-02f, -1.46753266e-01f, -2.00253781e-02f, -2.28424907e-01f,
    -3.59795019e-02f, 4.97065261e-02f, -9.51683149e-03f, -9.41293985e-02f, -3.30128008e-03f, 3.10735330e-02f, 5.96628413e-02f, 4.02455144e-02f,
    -1.08681798e-01f, -1.22902244e-01f, -1.06883198e-01f, -9.46191326e-02f, -1.84039146e-01f, -1.47698686e-01f, 4.30006236e-02f, 3.88928987e-02f,
    -2.54224986e-02f, -1.29376471e-01f, -3.59032638e-02f, -2.19802991e-01f, 1.20309228e-02f, 8.15812126e-02f, -4.12354097e-02f, -4.06436017e-03f,
    1.70216039e-02f, 3.86147271e-03f, -1.43402657e-02f, 3.71779688e-02f, -1.10785253e-01f, -5.27588315e-02f, -1.15956984e-01f, -2.05179732e-02f,
    -1.51288554e-01f, -4.99586612e-02f, 1.04311682e-01f, 2.45319176e-02f, 6.31022528e-02f, -1.11901924e-01f, -7.06339851e-02f, -2.29095489e-01f,
    1.39734000e-02f, -1.32848188e-01f, 1.17392968e-02f, -1.66214854e-02f, -7.50292689e-02f, -2.21962109e-01f, -1.25175014e-01f, 1.10757060e-01f,
    -5.56797162e-02f, -1.36446297e-01f, 1.64756142e-02f, -1.75596997e-02f, 7.71546550e-03f, -1.08292904e-02f, 2.27950253e-02f, -1.33286655e-01f,
    -1.05681896e-01f, 5.44600524e-02f, 1.00343265e-02f, -1.20393306e-01f, 4.69953641e-02f, 1.30048349e-01f, -2.23312597e-03f, 1.66716464e-02f,
    -2.23651100e-02f, -6.35333955e-02f, 2.57616062e-02f, 1.39737025e-01f, -1.44225731e-01f, -7.28501454e-02f, -6.78917021e-03f, -9.09126177e-02f,
    5.74028259e-03f, 4.05467376e-02f, -8.38439912e-02f, -2.77139634e-01f, -1.38746098e-01f, 1.12085417e-01f, -2.98376568e-02f, -1.32069632e-01f,
    1.49364341e-02f, 1.26676917e-01f, 1.73925161e-02f, 3.56739946e-02f, 1.46151334e-02f, -7.41369203e-02f, -4.69594672e-02f, 6.81809857e-02f,
    -1.65177315e-01f, -1.34051800e-01f, -7.29693249e-02f, -4.53941822e-02f, -4.68598604e-02f, -2.86694225e-02f, -1.39707372e-01f, -2.53919154e-01f,
    -8.35367590e-02f, 1.15099423e-01f, -8.63308907e-02f, -1.65830150e-01f, 2.42092833e-02f, 1.50243819e-01f, 2.79937834e-02f, -3.62689942e-02f,
    5.47562093e-02f, -4.09040339e-02f, -2.90165320e-02f, 1.31010473e-01f, -8.25371370e-02f, -2.52290834e-02f, -2.02628858e-02f, -5.15605584e-02f,
    2.07593720e-02f, 3.33143920e-02f, -5.19731306e-02f, -1.38251513e-01f, -5.52643053e-02f, 1.30787015e-01f, -2.85593756e-02f, -8.09393153e-02f,
    -1.46907270e-01f, -1.00857079e-01f, -2.99655478e-02f, 4.47935574e-02f, 1.85249150e-02f, -1.56487569e-01f, -2.14748401e-02f, 1.37350604e-01f,
    -7.97494780e-03f, -1.91982433e-01f, -3.02021839e-02f, -6.61409274e-02f, 7.17716245e-03f, 9.24293175e-02f, 9.57618430e-02f, -1.75143242e-01f,
    7.64219463e-03f, 6.71958504e-03f, 4.13274355e-02f, -1.42324388e-01f, -8.92014727e-02f, 1.32397488e-01f, 6.55953586e-02f, 4.52494994e-02f,
    8.52697715e-02f, -1.21126033e-01f, 1.93144046e-02f, 8.87705907e-02f, -1.50024056e-01f, -1.08899154e-01f, -2.20157299e-02f, -1.10027216e-01f,
    4.60647307e-02f, 3.89352837e-03f, -3.59277893e-03f, -1.63524345e-01f, -1.58697546e-01f, 8.86222869e-02f, 6.21460490e-02f, -1.61408737e-01f,
    -3.48926112e-02f, 3.29980830e-05f, -5.23570254e-02f, 8.24032649e-02f, 6.79239556e-02f, -1.22279208e-02f, 6.88535487e-03f, 1.04261637e-02f,
    -3.73708531e-02f, -1.33135468e-01f, -8.68788287e-02f, -7.15608075e-02f, 8.68995190e-02f, 1.37044877e-01f, 1.27660790e-02f, -2.04742774e-01f,
    -1.03643641e-01f, 5.27242310e-02f, 6.83627501e-02f, -1.40663937e-01f, 1.87605713e-02f, 1.41926497e-01f, 3.29291038e-02f, -2.92062573e-02f,
    3.54669504e-02f, -6.94886148e-02f, 1.25105139e-02f, 6.65828511e-02f, -1.75650313e-01f, -5.40170074e-02f, -2.12028623e-03f, -1.01934858e-01f,
    1.07400626e-01f, 1.23356998e-01f, -6.91835396e-03f, -1.63726717e-01f, -1.21285655e-01f, 2.32898891e-02f, -3.83845791e-02f, -1.37434438e-01f,
    5.94115444e-03f, -8.89065489e-02f, -5.11111319e-02f, 3.38567942e-02f, -3.94957177e-02f, -1.57011095e-02f, -8.02909732e-02f, 2.99145915e-02f,
    8.37228000e-02f, -7.38634542e-02f, 3.62694897e-02f, -2.23330222e-02f, -8.62809457e-03f, 3.44790816e-02f, -3.10909864e-03f, -1.01788551e-01f,
    -5.04616126e-02f, 1.01917729e-01f, -1.21721514e-02f, -7.03480914e-02f, -1.22653702e-02f, -4.92845103e-02f, 8.08876287e-03f, 2.73350924e-02f,
    -5.79555798e-03f, 1.19490793e-03f, 3.06394808e-02f, 4.04836610e-02f, -1.30735785e-02f, 4.27068621e-02f, 7.49670016e-03f, -8.02773535e-02f,
    -3.20379920e-02f, 3.29005420e-02f, 5.15901595e-02f, -4.90619689e-02f, -2.35597417e-02f, -2.37797503e-03f, -6.00416120e-03f, -5.05893212e-03f,
    -2.29524355e-02f, -1.06655627e-01f, 8.49951897e-03f, 5.52126504e-02f, 5.58160357e-02f, 2.48331390e-02f, 2.95152534e-02f, 1.05991744e-01f,
    -2.52275495e-03f, -6.84632882e-02f, -1.09867543e-01f, -1.60678744e-01f, 5.59327155e-02f, 2.10710123e-01f, -5.47906309e-02f, -1.59514651e-01f,
    -9.51747224e-02f, 1.08001634e-01f, -1.97718553e-02f, -5.30752540e-02f, -1.11409225e-01f, 1.14322804e-01f, 1.63511857e-01f, 7.73940906e-02f,
    -5.26685752e-02f, -1.94828093e-01f, -7.90318847e-02f, 2.00351715e-01f, -1.88679338e-01f, -1.20230459e-01f, -3.72502161e-03f, -2.30646855e-03f,
    -3.32974531e-02f, 8.86096507e-02f, 5.14203683e-03f, 4.24331985e-03f, -6.23969883e-02f, -3.01218941e-03f, 5.02252430e-02f, -9.09951795e-03f,
    -2.39683054e-02f, -9.00699422e-02f, -7.31649920e-02f, -9.24879126e-03f, -2.99571571e-03f, 4.40750606e-02f, -3.57387289e-02f, 2.50998922e-02f,
    -1.90375804e-03f, -4.36254218e-03f, -9.18106958e-02f, -6.51113391e-02f, -6.08741641e-02f, 3.02671939e-02f, -1.79840457e-02f, 7.13245720e-02f,
    -4.07299288e-02f, 2.69209202e-02f, 2.57837260e-03f, 2.14381199e-02f, -2.81954240e-02f, -1.03502072e-01f, -5.51288836e-02f, -2.11509485e-02f,
    -5.81583893e-03f, 7.64615983e-02f, -1.25415018e-02f, -1.71686448e-02f, 5.59098758e-02f, -3.07936743e-02f, 8.34781397e-03f, -1.01853631e-01f,
    4.95856628e-02f, 4.95634004e-02f, 7.41560524e-03f, 2.48544514e-02f, -1.87104195e-02f, 9.94460508e-02f, -4.09048870e-02f, -9.71782655e-02f,
    -7.39349872e-02f, -3.79720442e-02f, -6.91717193e-02f, 3.57175134e-02f, 4.05604802e-02f, 6.05812483e-02f, -7.68742040e-02f, 4.45484258e-02f,
    -2.06364356e-02f, -1.27488568e-01f, -6.16883533e-03f, -6.68198317e-02f, 5.10377213e-02f, 1.37976974e-01f, -8.93634930e-02f, -2.13648170e-01f,
    -3.84775251e-02f, 1.99321401e-03f, -2.19329745e-02f, 5.09751625e-02f, -1.10514373e-01f, -3.86121497e-02f, 1.83006078e-01f, 2.35359594e-01f,
    -1.35585338e-01f, -3.06656688e-01f, -2.40244821e-01f, 2.99065888e-01f, -2.36942708e-01f, -2.76084095e-01f, -9.42948908e-02f, -3.63608375e-02f,
    2.91831177e-02f, 7.69781098e-02f, 3.44424583e-02f, -2.53478196e-02f, -8.54862928e-02f, 8.31654742e-02f, 2.76025385e-02f, -7.35124424e-02f,
    -5.81424311e-02f, -7.78183341e-02f, 7.24620745e-02f, -7.71460012e-02f, 8.99682753e-03f, 1.05409332e-01f, 6.97304402e-03f, 3.83764505e-02f,
    6.03003129e-02f, -5.86980395e-02f, -1.63696595e-02f, -1.21734962e-01f, -1.06307939e-02f, 1.34226661e-02f, -7.63559416e-02f, 2.87234876e-03f,
    2.30362006e-02f, 7.87415430e-02f, 1.69505198e-02f, 8.28035176e-03f, 6.03467040e-02f, -3.48393135e-02f, 2.42089704e-02f, -8.92819017e-02f,
    2.90676244e-02f, 3.17408517e-02f, 1.60364490e-02f, 2.12009605e-02f, -4.63284738e-03f, 5.77434488e-02f, -6.34887367e-02f, -7.45294988e-02f,
    -3.34930755e-02f, 2.04647761e-02f, -2.20174827e-02f, 8.31106156e-02f, 5.65336598e-03f, 7.21195191e-02f, 1.17548397e-02f, -2.51884293e-02f,
    -1.03845354e-02f, -8.71472508e-02f, -1.19935377e-02f, 5.47301546e-02f, 8.56045410e-02f, 2.35378891e-02f, -3.70021537e-02f, 2.16200445e-02f,
    -3.00182793e-02f, -3.88682112e-02f, -3.33973877e-02f, -1.27547115e-01f, 5.94951548e-02f, 9.17232409e-02f, -1.54603645e-01f, -2.10840270e-01f,
    -1.12144418e-01f, 5.25194630e-02f, 5.32273427e-02f, 2.49725804e-02f, -1.55311391e-01f, 2.71312203e-02f, 4.26201895e-02f, 2.09536284e-01f,
    -2.14393005e-01f, -2.68841594e-01f, -3.50093395e-01f, 2.52682954e-01f, -1.30809516e-01f, -1.30130157e-01f, -1.01487860e-01f, -4.72628847e-02f,
    -5.62689602e-02f, 1.02720959e-02f, -1.98339596e-02f, -1.73395891e-02f, -7.65895396e-02f, 6.50307983e-02f, 1.96688250e-02f, 1.44638615e-02f,
    -3.35087553e-02f, -6.71320483e-02f, 2.96665877e-02f, 1.00249369e-02f, -5.67682320e-04f, 6.00263663e-02f, -1.22127704e-01f, 1.27456427e-01f,
    -1.67313796e-02f, 4.07065591e-03f, 3.75043005e-02f, -6.09509274e-03f, 7.95214400e-02f, -6.47731777e-03f, -1.78956222e-02f, 3.82317081e-02f,
    -6.43882230e-02f, 8.94678980e-02f, 3.42000625e-03f, 1.30175427e-01f, -1.87456850e-02f, -5.36548086e-02f, -7.50165433e-02f, -1.08426057e-01f,
    1.20669328e-01f, -4.07339260e-03f, 5.05761337e-03f, 2.24806182e-03f, 3.16577852e-02f, 8.90110284e-02f, 2.14084592e-02f, -7.07286373e-02f,
    1.32415071e-02f, -5.28975762e-03f, 4.43792120e-02f, -4.55822842e-03f, -2.80470718e-02f, 3.89523283e-02f, 2.29724646e-02f, 9.94775817e-03f,
    8.60724784e-03f, 2.23471364e-03f, -5.12654372e-02f, 5.31673655e-02f, 1.83768384e-02f, -4.51918952e-02f, -1.00355625e-01f, -1.22767203e-02f,
    4.79520783e-02f, 4.04507406e-02f, -3.14432159e-02f, -2.10660726e-01f, 9.53799188e-02f, 1.39003664e-01f, -2.41494358e-01f, -8.64020064e-02f,
    -1.02439083e-01f, 2.80757733e-02f, 9.41236094e-02f, 1.95180342e-01f, -1.66857451e-01f, -7.81040713e-02f, 2.50289962e-02f, 2.61280477e-01f,
    -5.87867320e-01f, -1.47282541e-01f, -2.79914796e-01f, 2.24023670e-01f, -9.82394740e-02f, 1.08706400e-01f, 2.28756182e-02f, -1.22754693e-01f,
    -2.94022467e-02f, 1.81162339e-02f, -1.40677795e-01f, -5.66083239e-03f, -1.11550443e-01f, -2.03081183e-02f, 8.63109529e-02f, 4.59187254e-02f,
    1.12812527e-01f, -4.85421382e-02f, 6.77834153e-02f, 1.15614533e-02f, -8.30201879e-02f, 3.95113789e-02f, -1.12999506e-01f, 7.65404627e-02f,
    -8.80397260e-02f, 1.98684186e-02f, 2.31340118e-02f, -1.51865616e-01f, 4.71625924e-02f, 3.29923853e-02f, -9.33209807e-02f, -6.87646819e-03f,
    -3.29170935e-02f, 6.24951422e-02f, 6.90208888e-03f, 1.12082578e-01f, 7.37218633e-02f, 1.46568054e-02f, -1.05122231e-01f, 2.42723385e-03f,
    4.73093987e-03f, -1.68516904e-01f, 1.10987276e-01f, -2.52519771e-02f, 4.00451943e-02f, 1.28058922e-02f, 1.80801302e-02f, -3.62957567e-02f,
    1.88743565e-02f, -7.98478024e-04f, -7.12070465e-02f, 4.02369946e-02f, -4.93403189e-02f, 1.26056731e-01f, 1.22959865e-02f, 5.75115867e-02f,
    -5.28069139e-02f, 8.61747190e-03f, -1.78319719e-02f, 1.32916328e-02f, -1.59878597e-01f, -2.60526612e-02f, -1.13020822e-01f, 3.87895592e-02f,
    5.71894199e-02f, 1.07031338e-01f, 1.48551352e-02f, -2.22360641e-01f, 6.32168278e-02f, 1.06977731e-01f, -3.00403565e-01f, -5.72436005e-02f,
    -1.77607462e-01f, 4.74361442e-02f, 7.30663911e-02f, 1.75840408e-01f, -6.64409101e-02f, -3.63049865e-01f, 1.69701591e-01f, 6.32971078e-02f,
    -7.15630710e-01f, 1.17254354e-01f, -2.85008848e-01f, 4.22868878e-02f, 4.30578627e-02f, 2.74333417e-01f, 2.62004752e-02f, -6.54533952e-02f,
    -2.00642403e-02f, 7.63007104e-02f, -1.46592438e-01f, -6.73514083e-02f, -1.36608303e-01f, -7.70926895e-03f, 7.10026324e-02f, 1.12032309e-01f,
    1.07446551e-01f, 2.40755174e-02f, 2.32031345e-02f, 1.06682889e-01f, -3.96301784e-02f, -3.38369459e-02f, -1.19122960e-01f, 9.35207084e-02f,
    -6.73010945e-02f, 3.02236900e-02f, 1.04827151e-01f, 1.32766441e-02f, -5.75129427e-02f, 8.43490660e-02f, -1.34619996e-01f, -3.07678450e-02f,
    -1.02961576e-02f, -2.96377111e-02f, -6.44891039e-02f, 1.25642464e-01f, 1.00229450e-01f, -1.72655396e-02f, -1.24065973e-01f, 5.00704758e-02f,
    2.50127167e-01f, -3.29186469e-01f, -7.97399133e-02f, 7.86713213e-02f, 4.02739570e-02f, -1.15970016e-01f, 1.89677309e-02f, 2.69580334e-02f,
    2.81954627e-03f, 2.35880613e-02f, -6.10171743e-02f, -3.89872268e-02f, -8.83829147e-02f, 1.32302810e-02f, -3.10662687e-02f, 1.27129421e-01f,
    9.31571890e-03f, -1.61954254e-01f, 6.12217374e-02f, 1.06305564e-02f, -4.61725369e-02f, 2.82801334e-02f, -1.85112759e-01f, -5.53335957e-02f,
    3.77819538e-02f, 1.10745549e-01f, 7.86407962e-02f, -7.42079094e-02f, -3.63291353e-02f, 3.15255225e-02f, -3.64938080e-01f, -3.91067415e-02f,
    -1.85524717e-01f, 3.11004147e-02f, -3.45493779e-02f, 1.80485860e-01f, 3.04674823e-02f, -5.23279846e-01f, 1.36703536e-01f, -1.30931482e-01f,
    -6.60722971e-01f, 3.05521667e-01f, -1.63723543e-01f, -2.49939393e-02f, 1.22472756e-01f, 2.03813702e-01f, 7.85487890e-02f, -1.18859239e-01f,
    -1.06532713e-02f, 5.76766208e-02f, -1.83867216e-01f, -4.51267809e-02f, -7.67258778e-02f, 7.45680300e-04f, 9.38131101e-03f, 1.27537608e-01f,
    5.56932576e-02f, -5.52943945e-02f, 5.90931587e-02f, -1.48995696e-02f, -3.88569757e-02f, -7.66162574e-02f, -6.47125393e-02f, 9.45017710e-02f,
    3.83699080e-03f, 6.00170232e-02f, 1.26910135e-02f, 1.10399239e-02f, 1.00164656e-02f, 5.56164235e-02f, -4.87240478e-02f, 3.44344154e-02f,
    -1.33329153e-01f, 7.05824271e-02f, 3.34403068e-02f, 4.22183461e-02f, -5.26050441e-02f, 6.20151907e-02f, -1.00183345e-01f, 7.97494873e-02f,
    2.95987129e-01f, -2.78885394e-01f, -1.67472169e-01f, 8.10648277e-02f, -1.52018154e-03f, -1.44478545e-01f, 1.01725638e-01f, -9.31123924e-03f,
    6.74094632e-03f, 2.68724021e-02f, -5.03355823e-02f, -2.12264131e-03f, -8.61259475e-02f, 1.49939924e-01f, 1.89273916e-02f, 4.67405394e-02f,
    5.70384897e-02f, -8.53388384e-02f, -3.87756377e-02f, 5.54108210e-02f, 1.85047884e-06f, -4.41303616e-03f, -7.62126893e-02f, 7.27800094e-03f,
    4.31378670e-02f, 1.01438314e-01f, 4.95022275e-02f, -2.04927132e-01f, -9.11279991e-02f, -1.29600078e-01f, -1.22358337e-01f, 8.08656812e-02f,
    -1.21619731e-01f, 6.94377571e-02f, 7.16653094e-02f, -2.96426727e-03f, 4.01416309e-02f, -5.04584968e-01f, 1.47162657e-02f, -2.79350013e-01f,
    -6.65128887e-01f, 3.58760655e-01f, 1.66449696e-01f, -1.42267287e-01f, 9.56042844e-04f, 2.77710587e-01f, 8.05079564e-02f, -8.86164680e-02f,
    7.72373285e-03f, 6.83228746e-02f, -2.00478122e-01f, 1.41148688e-02f, -5.25660887e-02f, 3.09353098e-02f, 2.35289298e-02f, 8.53160173e-02f,
    7.63550326e-02f, -7.54701048e-02f, -5.64024337e-02f, 8.00546706e-02f, -5.14350533e-02f, -4.32754755e-02f, -5.95995374e-02f, 3.96769606e-02f,
    6.11172169e-02f, 3.40412408e-02f, -1.99932139e-02f, 1.58726163e-02f, 9.14374087e-03f, -3.90002541e-02f, 6.04580119e-02f, 5.54992743e-02f,
    -1.23786293e-01f, 1.20718051e-02f, 5.41107394e-02f, -4.93204296e-02f, -3.16744186e-02f, 2.40100455e-03f, -1.29311951e-02f, 1.29592046e-01f,
    1.79598317e-01f, -2.53400564e-01f, -1.08428337e-01f, 1.25354752e-01f, 3.81075405e-02f, -2.68364310e-01f, 9.07332599e-02f, -5.83527237e-02f,
    -7.12689804e-03f, 2.62326524e-02f, -6.10179733e-03f, -1.38864210e-02f, -1.05652362e-01f, 1.19027160e-01f, 5.01906388e-02f, -3.05983722e-02f,
    1.40046468e-03f, -1.19661152e-01f, -3.18026096e-02f, -6.68695346e-02f, -3.84575315e-02f, 7.92765468e-02f, -4.21731323e-02f, -3.08556687e-02f,
    -1.29455253e-02f, -1.39015000e-02f, 1.18634380e-01f, -1.65815249e-01f, -5.92650510e-02f, -1.05582111e-01f, -2.60022897e-02f, 1.77770376e-01f,
    2.77615208e-02f, 3.88888344e-02f, 1.13478467e-01f, -1.02733085e-02f, -3.22438292e-02f, -2.24234611e-01f, -3.89984548e-02f, -3.35234344e-01f,
    -4.89147544e-01f, 3.66527975e-01f, 2.11365849e-01f, -1.77707762e-01f, -3.88860255e-02f, 1.59126505e-01f, -8.87812523e-04f, -7.38958046e-02f,
    -6.52782097e-02f, 4.94314693e-02f, -1.49463117e-01f, 3.71744111e-02f, -1.08538799e-01f, -4.79895435e-02f, 7.23530352e-02f, -5.26796356e-02f,
    5.48144653e-02f, -1.78266056e-02f, 4.95902821e-02f, -1.15463715e-02f, 4.20519561e-02f, -6.07894585e-02f, -3.07224691e-02f, -1.25676356e-02f,
    7.07807913e-02f, 1.61207132e-02f, 2.05144584e-02f, -2.22557988e-02f, 1.01333903e-03f, 3.87352034e-02f, 7.64114559e-02f, -3.72399986e-02f,
    -1.86795201e-02f, 5.68343885e-02f, 4.22946699e-02f, -1.13687627e-01f, -3.95242572e-02f, -3.13010812e-02f, -1.55099286e-02f, -6.34865388e-02f,
    2.19536558e-01f, -4.13899012e-02f, -1.64602026e-01f, 1.01974234e-01f, 8.09257329e-02f, -2.44711965e-01f, 2.35126764e-02f, -2.32917871e-02f,
    -1.97820067e-02f, -1.77937176e-03f, 9.16381739e-03f, 3.53370607e-02f, -1.12815440e-01f, 3.52838971e-02f, -3.90486931e-03f, -2.41207847e-04f,
    5.84397875e-02f, -2.70845387e-02f, -6.14942648e-02f, -1.02466077e-01f, 4.45097573e-02f, -2.56026455e-04f, 2.15349570e-02f, -5.10260537e-02f,
    6.02146909e-02f, -1.19121879e-01f, -8.48586112e-02f, -2.46847346e-01f, -1.37337357e-01f, -9.35206860e-02f, -5.81695512e-02f, 2.30198786e-01f,
    1.29112350e-02f, 9.38627403e-03f, 6.21280223e-02f, -1.64950192e-02f, 1.01431146e-01f, -4.87272739e-02f, -1.45680740e-01f, -4.08884078e-01f,
    -2.55777895e-01f, 2.13707969e-01f, 2.55704820e-01f, 5.49076917e-03f, -4.15409990e-02f, 9.93224084e-02f, -7.73195364e-03f, -5.05746752e-02f,
    -2.28367001e-02f, -6.87961355e-02f, -2.14427542e-02f, 4.95749898e-02f, -1.26209212e-02f, -5.83536401e-02f, -1.73080899e-02f, -1.44501813e-02f,
    6.89656511e-02f, -7.37264827e-02f, -2.82623973e-02f, -2.74197068e-02f, 6.70644343e-02f, 6.17197454e-02f, -7.46900886e-02f, -1.11201875e-01f,
    2.45073438e-02f, -1.02580331e-01f, -1.10100405e-02f, -8.94563571e-02f, -7.87207857e-02f, -4.16257530e-02f, 4.48979661e-02f, 6.03851527e-02f,
    9.36805829e-03f, -5.37105538e-02f, 4.42269482e-02f, -1.08426757e-01f, -4.78371717e-02f, 3.36591825e-02f, -9.34072956e-02f, -1.31602854e-01f,
    1.21932946e-01f, 1.65681124e-01f, -7.66924098e-02f, -3.25003751e-02f, 4.33973409e-02f, -2.47843042e-01f, 8.98572654e-02f, -5.39950877e-02f,
    2.82257590e-02f, -3.21459919e-02f, 4.40251715e-02f, -1.48746399e-02f, -6.77650869e-02f, 5.05390624e-03f, 3.02237440e-02f, -6.74654692e-02f,
    -2.74666976e-02f, -2.64983065e-02f, -1.02262743e-01f, -2.10394800e-01f, 6.54338393e-03f, 1.25732303e-01f, 1.58316400e-02f, -1.29825220e-01f,
    -7.51572102e-02f, -1.58020303e-01f, 3.42733860e-02f, -2.36608028e-01f, -2.51763724e-02f, -6.08532280e-02f, -7.89152309e-02f, 1.89399213e-01f,
    -9.05222669e-02f, -8.99922475e-02f, 5.34867719e-02f, -1.12926617e-01f, -2.89743394e-02f, 8.32011402e-02f, -6.14539757e-02f, -1.65693149e-01f,
    9.86891147e-03f, 1.71501413e-01f, 1.51166722e-01f, 1.07366942e-01f, -1.60906225e-01f, -2.84782127e-02f, -1.44235315e-02f, -5.60700223e-02f,
    -9.81397107e-02f, -7.29962885e-02f, 5.87957799e-02f, 9.14380029e-02f, -5.85268587e-02f, -2.83897817e-02f, 5.64075373e-02f, -8.04759711e-02f,
    -1.79393858e-01f, -1.45077303e-01f, -2.27536172e-01f, -1.83706775e-01f, 1.10310636e-01f, 7.55683929e-02f, -1.03405759e-01f, -2.01376006e-01f,
    -4.69881576e-03f, -1.37600675e-01f, -1.06116965e-01f, -2.53045976e-01f, -9.65078324e-02f, -2.03330487e-01f, 4.89652678e-02f, 1.19560577e-01f,
    -9.14205313e-02f, -1.66673616e-01f, 2.01299991e-02f, -1.34345889e-01f, -1.16406359e-01f, 1.51513964e-01f, -8.49827603e-02f, -8.62731561e-02f,
    6.74222410e-03f, 1.91889003e-01f, -1.13314100e-01f, 6.50443975e-03f, -9.77486894e-02f, -9.09184515e-02f, -8.05110633e-02f, -1.36798665e-01f,
    -1.20985933e-01f, -9.30355266e-02f, 1.16274590e-02f, 5.94399795e-02f, -5.48161976e-02f, -1.21346787e-01f, 1.47461239e-02f, -1.48302123e-01f,
    -7.86150247e-02f, 1.78457443e-02f, -1.19520761e-01f, -1.01053379e-01f, 8.28271508e-02f, 1.06079780e-01f, 9.77283716e-03f, -6.24850802e-02f,
    -4.11016643e-02f, -1.18138865e-01f, -4.41883281e-02f, -2.46684715e-01f, -1.73097625e-01f, -3.38983506e-01f, 2.04916531e-03f, 1.97036356e-01f,
    -2.86766320e-01f, -9.49318856e-02f, -2.90997867e-02f, -1.47279799e-01f, -1.45071857e-02f, 1.72411263e-01f, 8.35713930e-03f, -2.78688315e-02f,
    1.81058180e-02f, 6.11969782e-03f, 1.88685916e-02f, 8.72608051e-02f, -8.06956515e-02f, -6.32051453e-02f, -1.36808529e-01f, -1.03957191e-01f,
    -8.67085755e-02f, -8.10761973e-02f, 1.00010455e-01f, 3.72574218e-02f, -6.16480336e-02f, -1.20320037e-01f, 6.59421459e-02f, -1.84895247e-01f,
    2.78340913e-02f, -1.03002809e-01f, -2.27876415e-04f, 3.49698365e-02f, -1.60358652e-01f, -1.42038748e-01f, -7.31221735e-02f, 1.87211484e-01f,
    -3.06055881e-02f, -1.38886467e-01f, -1.91664137e-02f, -9.93884876e-02f, -6.40968755e-02f, 2.68986020e-02f, -8.02462995e-02f, -2.28694707e-01f,
    -1.10387929e-01f, 1.34402946e-01f, -1.14128992e-01f, -2.23788098e-01f, -5.62997237e-02f, 1.52793556e-01f, 1.09567102e-02f, 8.79590586e-03f,
    -1.22979647e-02f, 2.73165181e-02f, 3.32288891e-02f, 1.48096249e-01f, -9.96889174e-02f, -3.32754403e-02f, -9.01558921e-02f, -7.98633099e-02f,
    4.77245674e-02f, 5.68449646e-02f, -1.24527313e-01f, -1.87142208e-01f, -1.38095781e-01f, 1.10932201e-01f, -5.20822927e-02f, -1.92524254e-01f,
    3.52179781e-02f, 4.12615873e-02f, -2.71479357e-02f, 7.37791285e-02f, -1.97818764e-02f, -4.25923541e-02f, -3.48437652e-02f, 1.61778808e-01f,
    -1.21661238e-01f, -7.85344765e-02f, -8.82548746e-03f, -5.83598332e-04f, -7.49086291e-02f, 8.07094723e-02f, -8.27854574e-02f, -1.13271423e-01f,
    -1.49759457e-01f, 1.37577340e-01f, -8.64199325e-02f, -1.36867583e-01f, -5.03476756e-03f, 1.14167884e-01f, -7.75837665e-03f, -1.96574796e-02f,
    5.25643453e-02f, 3.42736673e-03f, -4.35995236e-02f, 7.07634240e-02f, -1.64258555e-01f, -3.83865610e-02f, -5.11923134e-02f, -9.39265341e-02f,
    -3.18715535e-02f, -1.21105532e-03f, -3.85491364e-02f, -1.99015856e-01f, -1.03163570e-01f, 1.43363014e-01f, -2.90771425e-02f, -7.07629770e-02f,
    -7.41234198e-02f, -1.22364208e-01f, 6.07025363e-02f, 7.13407397e-02f, -6.16307035e-02f, -1.33881256e-01f, -6.96476847e-02f, 4.61709760e-02f,
    7.20835105e-02f, -7.29323179e-02f, -8.33253115e-02f, -9.07210931e-02f, -1.78855825e-02f, 4.07515913e-02f, -1.09713100e-01f, -2.10746750e-01f,
    -1.11380570e-01f, 1.26993209e-01f, -3.50645892e-02f, -9.32395756e-02f, -1.69827789e-02f, 7.95640703e-03f, -2.93777958e-02f, -3.08593828e-03f,
    6.21017721e-03f, -3.87634803e-03f, -1.12035245e-01f, 3.82828079e-02f, -9.11279246e-02f, -6.27448559e-02f, -9.02455524e-02f, -8.60791281e-02f,
    1.00239709e-01f, 1.08416907e-01f, -1.44598722e-01f, -1.64531589e-01f, -1.53026164e-01f, 4.64057773e-02f, 5.03709242e-02f, -7.46664684e-03f,
    -4.99165133e-02f, -2.65012141e-02f, 9.37211737e-02f, 2.01487988e-02f, -9.18300301e-02f, -3.10252849e-02f, -4.98195328e-02f, 3.04715578e-02f,
    -3.76650766e-02f, 1.40758213e-02f, -1.69432350e-02f, -1.99649140e-01f, 4.66100909e-02f, 4.65962142e-02f, -1.38934001e-01f, -1.39236972e-01f,
    -1.75733075e-01f, 1.11534104e-01f, -5.85870594e-02f, -7.11339386e-03f, -6.35378137e-02f, 1.03061981e-01f, 1.49374232e-01f, 4.77201678e-02f,
    -5.34518249e-02f, -5.43895699e-02f, -8.72702003e-02f, 7.94698223e-02f, -1.59610048e-01f, -1.18890010e-01f, -7.43557364e-02f, -8.99285302e-02f,
    8.82159844e-02f, 2.80546695e-02f, -8.77929330e-02f, -1.25210881e-01f, -1.27676368e-01f, 3.08314860e-02f, 6.48216754e-02f, -3.75397946e-03f,
    4.58471254e-02f, -8.70850608e-02f, -1.03412762e-01f, 8.32208060e-03f, -1.01682335e-01f, -1.29892742e-02f, -2.92004086e-02f, -4.09585163e-02f,
    -3.23521718e-02f, 5.72738238e-02f, -7.18581080e-02f, -2.81823948e-02f, 1.62818953e-02f, 5.50441956e-03f, -1.60203427e-02f, -3.70671973e-02f,
    -3.21938917e-02f, 3.24923918e-02f, 1.05317784e-02f, -5.10837417e-03f, 3.22781578e-02f, -4.23137620e-02f, -2.89657712e-02f, -6.65799603e-02f,
    4.21574488e-02f, 1.01649404e-01f, 5.40961064e-02f, -3.80186401e-02f, 5.92596736e-03f, 3.81422304e-02f, 1.07683311e-03f, -1.49848789e-01f,
    2.75201779e-02f, 3.15394960e-02f, -6.70967698e-02f, 1.00406874e-02f, -3.12720910e-02f, -1.35685178e-02f, 2.12483164e-02f, 2.42804009e-02f,
    3.23283561e-02f, -4.92467172e-02f, -8.69781896e-02f, 6.28813282e-02f, 4.46758838e-03f, 6.61817491e-02f, -5.22064185e-03f, 2.42355559e-02f,
    4.79687452e-02f, -4.91007157e-02f, -6.59626350e-03f, -1.46602139e-01f, 8.16476792e-02f, 1.95257261e-01f, -6.76786453e-02f, -1.53102964e-01f,
    -1.02022715e-01f, -4.14989628e-02f, -6.12069406e-02f, 5.94166014e-03f, -6.40294403e-02f, 1.32916391e-01f, 2.21516982e-01f, 1.19244613e-01f,
    -1.12051576e-01f, -1.46101490e-01f, -1.12156473e-01f, 1.22372948e-01f, -1.56705871e-01f, -2.63426304e-01f, 2.42145136e-02f, -2.75615547e-02f,
    -2.41922308e-02f, -3.21116298e-02f, -4.14419323e-02f, -4.56514284e-02f, -4.16638851e-02f, 4.02419791e-02f, 3.14787216e-02f, -6.03022613e-02f,
    1.70668121e-02f, -8.21567848e-02f, -8.65268558e-02f, -1.35868087e-01f, 9.66278836e-02f, 4.56948206e-02f, -1.34107359e-02f, 8.18572491e-02f,
    -3.90000548e-03f, 6.36772662e-02f, -2.48248614e-02f, -1.04443647e-01f, -1.17615774e-01f, 6.64399937e-02f, 2.31058188e-02f, -1.90707054e-02f,
    -4.18678261e-02f, 2.65970863e-02f, 9.24646482e-03f, 1.77509282e-02f, -5.22981025e-02f, 4.43804078e-03f, -9.18241665e-02f, -8.92105773e-02f,
    3.21488194e-02f, 3.21704410e-02f, 9.10110250e-02f, -5.88985272e-02f, -2.26687547e-02f, 9.90071371e-02f, 3.14270332e-02f, -1.07106939e-01f,
    -1.05061300e-01f, -8.65558833e-02f, -6.06268877e-03f, 9.89815965e-02f, -3.41393575e-02f, 2.30031647e-02f, 5.06605282e-02f, 3.66112851e-02f,
    -7.68261775e-02f, -1.76418051e-02f, 1.40577685e-02f, -8.51268619e-02f, 4.98351529e-02f, 8.66573863e-03f, -3.57109085e-02f, 4.34931368e-02f,
    1.00824341e-01f, 4.90181223e-02f, -7.38912448e-02f, -8.83332267e-02f, 1.41429231e-01f, 1.48656487e-01f, -3.29507142e-02f, -1.85302556e-01f,
    -5.05860969e-02f, 7.10831136e-02f, -6.30382523e-02f, -2.01722924e-02f, -1.61780491e-01f, 6.06041960e-02f, 1.97371617e-01f, 2.94994086e-01f,
    -1.66019931e-01f, -1.91966429e-01f, -2.21236765e-01f, 2.37936884e-01f, -1.61457613e-01f, -3.69505495e-01f, -3.55312340e-02f, -5.37345372e-02f,
    -5.33958226e-02f, -3.52047607e-02f, -3.82237770e-02f, 1.80060379e-02f, 1.29550947e-02f, 7.13992119e-02f, -6.67888147e-04f, -9.54669900e-03f,
    5.76856770e-02f, -5.26691601e-02f, -6.41964078e-02f, -1.25572205e-01f, 1.24734350e-01f, 1.37861654e-01f, -6.08107522e-02f, 6.64443569e-03f,
    -5.02998289e-03f, 8.59257132e-02f, -5.40670082e-02f, -4.71433476e-02f, -2.67850570e-02f, -5.29736243e-02f, -4.06296887e-02f, 6.81440309e-02f,
    5.57396142e-03f, -7.74743874e-03f, 5.22266887e-02f, 5.10773249e-02f, -1.87693592e-02f, -2.23360974e-02f, -1.71440095e-01f, -9.97666419e-02f,
    1.61662728e-01f, 1.42068835e-02f, 2.70086657e-02f, -1.82184111e-02f, -5.94829507e-02f, 7.59789795e-02f, 3.43699381e-02f, 2.17947830e-02f,
    -1.29185870e-01f, -5.83966039e-02f, 7.23296916e-03f, 6.80179223e-02f, -6.16686828e-02f, 4.66721393e-02f, -9.83514357e-03f, 4.43569012e-03f,
    -2.63972059e-02f, -1.73837896e-02f, -6.84088469e-02f, -1.11769073e-01f, -1.34321591e-02f, 6.71763346e-02f, -8.44854563e-02f, -1.21176906e-03f,
    1.13377586e-01f, 1.28115313e-02f, -1.24694020e-01f, 1.14354705e-02f, 4.77891192e-02f, 1.95545509e-01f, 5.44331595e-02f, -2.18038127e-01f,
    -3.11986692e-02f, 3.67892757e-02f, -2.49540955e-02f, 1.11525327e-01f, -1.49177378e-02f, 1.19519129e-01f, 2.67540723e-01f, 3.51989537e-01f,
    -3.98362488e-01f, -2.61595190e-01f, -3.29725891e-01f, 1.17341496e-01f, -1.02921523e-01f, -3.30735236e-01f, -5.21626621e-02f, -6.63964227e-02f,
    3.79217565e-02f, -7.21337125e-02f, -1.42402221e-02f, -3.39184748e-03f, 4.58467752e-04f, 8.66069868e-02f, 3.89547125e-02f, 2.92014312e-02f,
    -8.47349502e-03f, -4.00597975e-02f, -1.14408590e-01f, -1.54989749e-01f, -7.92098790e-03f, 7.38109425e-02f, 2.44818479e-02f, 6.10131882e-02f,
    5.74295111e-02f, 1.74200404e-02f, 3.51446345e-02f, -8.06707293e-02f, -6.02146722e-02f, -9.50405747e-02f, 4.55282591e-02f, 5.09244502e-02f,
    -8.34519267e-02f, -9.57440678e-03f, 2.75094137e-02f, 7.99804330e-02f, 8.30764230e-03f, -9.34937596e-02f, -1.80424139e-01f, -1.21266633e-01f,
    1.97219715e-01f, 2.49475595e-02f, 7.51896724e-02f, -1.75970435e-01f, -5.18694185e-02f, 2.86072269e-02f, 4.17019948e-02f, -4.74833846e-02f,
    -1.08994909e-01f, -8.64590183e-02f, 8.37298557e-02f, 1.24338768e-01f, 1.28077436e-02f, 1.21670581e-01f, 7.17051476e-02f, 5.31270308e-03f,
    5.35476133e-02f, -5.46856932e-02f, -2.43958347e-02f, -5.50422557e-02f, -6.47053868e-02f, 5.03258333e-02f, 1.59761347e-02f, 9.46724042e-02f,
    9.60802212e-02f, -1.99195952e-03f, -1.29487693e-01f, -2.61499643e-01f, -9.55784097e-02f, 1.68389380e-01f, -9.45269391e-02f, -6.82863146e-02f,
    -1.83126666e-02f, -1.93829648e-02f, 1.08078662e-02f, 1.05703123e-01f, -2.26315051e-01f, -2.50447001e-02f, 1.52408659e-01f, 2.61296839e-01f,
    -4.30141866e-01f, -3.79340351e-02f, -4.18008387e-01f, 7.86435679e-02f, 4.11560722e-02f, -1.38286546e-01f, 5.98042943e-02f, 8.98460299e-03f,
    -4.15051095e-02f, 3.39041874e-02f, -4.68622707e-02f, 6.85713068e-02f, -6.72012344e-02f, 6.11002930e-02f, 9.59308296e-02f, -5.40911220e-04f,
    -5.60861640e-02f, 1.37988508e-01f, -5.41091803e-03f, 4.23003882e-02f, -1.81834757e-01f, -1.56745538e-02f, -9.88245085e-02f, 8.87521952e-02f,
    3.67086157e-02f, -5.58607802e-02f, 6.26590922e-02f, 8.38213414e-02f, -3.42321135e-02f, 7.00154006e-02f, -1.59093902e-01f, 1.29537974e-02f,
    -4.19550724e-02f, 5.14596738e-02f, -1.39394971e-02f, 6.26432896e-02f, 6.41117841e-02f, 7.23783821e-02f, -1.62764043e-01f, 2.61334330e-02f,
    -2.30679493e-02f, -1.13468766e-01f, 8.67842510e-03f, -4.58566472e-02f, -5.55355772e-02f, 1.00611277e-01f, -6.94790913e-04f, 8.53295159e-03f,
    -9.30244699e-02f, -1.08001374e-01f, -5.30374013e-02f, 1.78139620e-02f, -6.18408173e-02f, 1.13776714e-01f, 4.83721085e-02f, -7.35501796e-02f,
    1.17816739e-02f, 7.02620521e-02f, 1.89682432e-02f, -3.23682353e-02f, -8.16185102e-02f, -1.38615996e-01f, -1.80517793e-01f, 6.21823855e-02f,
    2.35769656e-02f, -4.33173329e-02f, -1.60856321e-01f, -7.36733750e-02f, -1.36173740e-01f, 9.98245329e-02f, -3.64578396e-01f, 4.54567671e-02f,
    -5.75969629e-02f, -5.37131876e-02f, 1.54274896e-01f, 5.72482869e-02f, -1.62325561e-01f, -2.99090058e-01f, 2.56942272e-01f, 1.21582985e-01f,
    -4.83972371e-01f, 1.19489148e-01f, -3.28991950e-01f, 1.23839237e-01f, 4.84564900e-02f, 8.73905420e-02f, 1.77130615e-03f, 5.47777815e-03f,
    4.66281809e-02f, 4.26862240e-02f, -1.58594564e-01f, 3.53107764e-03f, -9.22369808e-02f, 3.84631976e-02f, -8.81046429e-02f, 8.27713832e-02f,
    -5.34541765e-03f, 1.46284863e-01f, 2.88038049e-02f, 1.70081537e-02f, -3.14366184e-02f, -9.92024317e-02f, -2.15947941e-01f, 5.85410334e-02f,
    -8.58552009e-02f, 1.17962342e-02f, -1.33070564e-02f, 9.76490602e-02f, 1.96356270e-02f, 6.76731616e-02f, -1.40660539e-01f, -1.09686486e-01f,
    -1.02350138e-01f, 1.31436661e-01f, -1.09687261e-01f, -3.88356857e-02f, -7.85032362e-02f, 8.95462856e-02f, -3.48100811e-02f, 5.06442264e-02f,
    2.90910393e-01f, -3.31536859e-01f, -6.49115071e-02f, 6.05747476e-02f, 3.09823975e-02f, -6.29624799e-02f, -5.14379237e-03f, 1.72621951e-01f,
    -6.35119826e-02f, -1.04511827e-02f, -1.07276142e-01f, -6.31233975e-02f, -1.49356768e-01f, 6.34924099e-02f, -5.26133664e-02f, -3.30374464e-02f,
    1.33221686e-01f, -9.88503993e-02f, -9.12186783e-03f, 2.56594289e-02f, 1.15864448e-01f, -1.46235868e-01f, -2.52718151e-01f, 5.20123988e-02f,
    -3.42021435e-02f, 4.27110270e-02f, -2.77054757e-01f, -6.40229555e-03f, -1.47630736e-01f, 7.14520514e-02f, -2.59790748e-01f, 1.60977945e-01f,
    1.00633755e-01f, 4.49114107e-03f, 1.09945104e-01f, 1.27908453e-01f, 4.11169901e-02f, -3.97433311e-01f, 1.31513670e-01f, -1.36538684e-01f,
    -4.76264954e-01f, 4.22358990e-01f, -1.19238704e-01f, 4.41494025e-02f, 7.38158673e-02f, 3.62007022e-02f, 2.45989095e-02f, 3.34756821e-02f,
    -7.69686997e-02f, 4.41623926e-02f, -1.14274167e-01f, -1.54814363e-01f, -6.62066862e-02f, 5.75193390e-02f, -7.03885872e-03f, 3.30698453e-02f,
    6.47567362e-02f, 3.86804566e-02f, 3.68277282e-02f, 1.07431766e-02f, 4.43407148e-03f, -1.83799028e-01f, -1.44469261e-01f, 8.09469447e-02f,
    -3.35990675e-02f, -3.83122899e-02f, 9.41569060e-02f, 1.18338792e-02f, -7.18484670e-02f, 8.33450556e-02f, -1.32736191e-02f, -1.39533356e-01f,
    -1.01819448e-01f, 1.70557261e-01f, -4.08828929e-02f, 2.38812882e-02f, -6.18233234e-02f, -1.11001641e-01f, -4.76155207e-02f, 4.75150421e-02f,
    2.00768918e-01f, -4.61900324e-01f, -1.09693855e-01f, 6.69672862e-02f, 1.79195091e-01f, 1.55048881e-04f, 6.92438185e-02f, 1.19186528e-01f,
    9.53559950e-03f, 6.34950921e-02f, 2.48997286e-02f, -1.30056143e-01f, -9.62362140e-02f, 5.64116612e-02f, -7.85461515e-02f, 1.44515028e-02f,
    1.01538710e-01f, -1.11887060e-01f, 5.60124367e-02f, 1.21873496e-02f, -6.79742172e-02f, -1.06428778e-02f, -2.29537919e-01f, 9.93230194e-02f,
    3.18496376e-02f, -1.34301577e-02f, -2.16263846e-01f, -2.85825759e-01f, -9.72272754e-02f, 9.12078321e-02f, -1.19784139e-01f, 1.32924333e-01f,
    1.25121951e-01f, 3.60556766e-02f, 9.22304615e-02f, 2.18900904e-01f, 7.09158853e-02f, -3.22797120e-01f, 2.00461969e-02f, -2.25564212e-01f,
    -6.50219321e-01f, 4.39035952e-01f, 1.47092700e-01f, -1.06679201e-01f, 3.97746488e-02f, 1.12774774e-01f, 1.03106856e-01f, -3.87333743e-02f,
    -2.91424282e-02f, 1.23444870e-01f, -1.53508842e-01f, -9.23869982e-02f, -1.34910792e-01f, 1.62207961e-01f, -1.44094536e-02f, 4.92550023e-02f,
    4.92622517e-02f, 1.17455451e-02f, -3.50649795e-03f, 9.01628509e-02f, 9.64373816e-03f, -1.01717964e-01f, -1.24238446e-01f, 5.09578139e-02f,
    -1.42525425e-02f, 6.79473057e-02f, -9.74753592e-03f, -6.10229783e-02f, 8.18461403e-02f, 9.52989981e-02f, 2.91389786e-02f, -8.61380771e-02f,
    -8.67387876e-02f, 4.10405435e-02f, 7.37182330e-03f, 1.45313656e-02f, 3.82886752e-02f, -1.07202969e-01f, 1.16886906e-01f, 3.89220528e-02f,
    2.11824924e-01f, -4.63158756e-01f, -1.18742511e-01f, 1.71367377e-02f, 9.32906345e-02f, -3.44362408e-02f, 4.92677502e-02f, -2.75501143e-02f,
    7.33040422e-02f, -5.80106210e-03f, 4.28154804e-02f, -1.58206642e-01f, -1.50183260e-01f, 9.36819538e-02f, 5.18504605e-02f, 2.27555148e-02f,
    7.96830356e-02f, -6.23018891e-02f, -4.14047465e-02f, -1.21248690e-02f, -5.88666201e-02f, 2.72494997e-03f, -6.04876801e-02f, 2.73417216e-02f,
    2.99062151e-02f, -2.92752869e-02f, -5.66013232e-02f, -2.16076717e-01f, -1.48847878e-01f, -1.23341642e-01f, -1.21130630e-01f, 7.53436536e-02f,
    1.29340813e-01f, -8.06700438e-02f, 2.08904311e-01f, 7.39257634e-02f, -9.95125622e-03f, -1.15946986e-01f, -1.65658385e-01f, -3.90438557e-01f,
    -4.17968333e-01f, 3.98387581e-01f, 2.59197205e-01f, -2.63307869e-01f, 1.89595316e-02f, 1.36127695e-01f, 1.28038183e-01f, -4.89046909e-02f,
    -7.67088532e-02f, 1.00366317e-01f, -9.03809145e-02f, -7.95533434e-02f, -1.58844426e-01f, 8.27819780e-02f, 1.25244945e-01f, -3.11796591e-02f,
    2.29292251e-02f, -3.70372571e-02f, 3.52741517e-02f, 3.65182711e-03f, 2.39998586e-02f, -1.14905268e-01f, -2.40649246e-02f, 1.68802571e-02f,
    2.53352989e-03f, 4.54482883e-02f, -2.01193197e-03f, -8.97263288e-02f, 9.49688070e-03f, 5.50370589e-02f, -4.52556089e-02f, -7.27317557e-02f,
    -9.03493389e-02f, 5.14946096e-02f, 5.59431277e-02f, -9.22593325e-02f, 7.24633932e-02f, 5.97861446e-02f, 1.23299912e-01f, 1.81472525e-02f,
    5.11533543e-02f, -3.88650209e-01f, -6.22938536e-02f, 5.48180714e-02f, 1.85104638e-01f, -8.07456300e-02f, 3.03285904e-02f, -8.34373683e-02f,
    8.98085758e-02f, -9.06473119e-03f, -3.59901227e-02f, -1.41098574e-01f, -7.42813423e-02f, 8.74130800e-02f, 6.06956817e-02f, 4.54598386e-03f,
    9.88049284e-02f, -9.90462601e-02f, 1.02213649e-02f, 5.38433529e-02f, -3.18560489e-02f, 2.06545126e-02f, -9.93253961e-02f, -3.45560722e-02f,
    -1.46357687e-02f, -7.39046857e-02f, 4.95440774e-02f, -1.15256220e-01f, -1.97656006e-01f, -2.25076973e-01f, -1.49113059e-01f, 2.13813469e-01f,
    2.02501610e-01f, 3.38338409e-03f, 6.79592714e-02f, -7.16196699e-03f, 1.78913493e-02f, 3.92834991e-02f, -2.42666319e-01f, -3.24633956e-01f,
    -2.00090349e-01f, 3.30868512e-01f, 1.33421555e-01f, -2.22338155e-01f, -1.67384952e-01f, -3.15369740e-02f, 4.67971042e-02f, 1.86795980e-04f,
    -4.59874310e-02f, 9.01673138e-02f, -6.15254715e-02f, -8.05199370e-02f, -2.45636478e-02f, 5.64379469e-02f, 7.82239810e-02f, -7.20933005e-02f,
    9.59575735e-03f, -1.47964686e-01f, 2.22077928e-02f, -6.24274425e-02f, -3.66624705e-02f, 4.95237596e-02f, -8.39413181e-02f, -4.67870869e-02f,
    5.14959246e-02f, -1.25673249e-01f, 1.03963062e-01f, -1.77037761e-01f, -1.75170153e-02f, -6.37595281e-02f, -6.70080855e-02f, 2.49851421e-02f,
    -1.09787837e-01f, 1.40463999e-02f, 1.02047332e-01f, -2.53706444e-02f, 9.63064060e-02f, 1.56265259e-01f, -9.30294544e-02f, -1.41615093e-01f,
    1.71074271e-02f, -4.02207226e-02f, 3.63885425e-02f, -4.18184549e-02f, 6.13256544e-02f, -9.38118547e-02f, -2.13389378e-03f, -1.00772969e-01f,
    -5.37466221e-02f, 3.18168895e-03f, -5.08690327e-02f, -7.34458268e-02f, -1.03385054e-01f, 6.09786548e-02f, -9.87538788e-03f, -6.93578720e-02f,
    -7.16471002e-02f, -1.26048967e-01f, -6.50547668e-02f, -1.03063002e-01f, -1.78547800e-02f, 1.79266736e-01f, -1.04858652e-01f, -1.14738643e-01f,
    1.15132341e-02f, -1.93267003e-01f, 3.99651602e-02f, -1.63819611e-01f, -7.78924897e-02f, -2.25784391e-01f, -1.69912189e-01f, 2.01926529e-01f,
    8.78822505e-02f, -1.14244036e-01f, 3.60151492e-02f, -3.76505554e-02f, -9.79701430e-02f, 6.01781607e-02f, -5.47223464e-02f, -1.41259596e-01f,
    -3.78655121e-02f, 4.01767343e-01f, 6.63030446e-02f, 6.81598261e-02f, -1.82871357e-01f, -6.07125945e-02f, -5.38998023e-02f, -1.19855419e-01f,
    2.94703548e-03f, 4.33234163e-02f, 7.68223330e-02f, 8.58155861e-02f, -1.24783009e-01f, 8.38895701e-03f, 2.16226615e-02f, -9.68910307e-02f,
    -1.61570162e-01f, -2.17841551e-01f, -1.07779756e-01f, -1.68313444e-01f, -4.93846498e-02f, 2.46686727e-01f, -2.82916874e-01f, -2.20022783e-01f,
    1.46609982e-02f, -1.93169191e-01f, -8.74997377e-02f, -2.10183039e-01f, -1.27535120e-01f, -1.76235452e-01f, -8.21974277e-02f, 2.43505701e-01f,
    -1.42672718e-01f, -1.44959569e-01f, 4.97870147e-02f, -9.09762755e-02f, -8.57034847e-02f, 1.04946725e-01f, 4.51527126e-02f, -4.04363200e-02f,
    -4.35223728e-02f, 1.06788643e-01f, -7.04146624e-02f, 6.95166588e-02f, -1.62974879e-01f, -8.11171234e-02f, -2.32479330e-02f, -1.90901697e-01f,
    -8.63365233e-02f, -2.53294051e-01f, -8.13736096e-02f, 2.03812972e-01f, -4.26823683e-02f, -2.14122474e-01f, 3.34459953e-02f, -1.55199289e-01f,
    -1.45878181e-01f, 1.63475070e-02f, -6.50621131e-02f, -2.31099963e-01f, 3.42705026e-02f, 1.64548710e-01f, -1.28946885e-01f, -9.70556810e-02f,
    2.28162557e-02f, -1.22756079e-01f, -1.82416141e-02f, -2.01416716e-01f, 6.13542087e-02f, -2.43928343e-01f, -1.72759488e-01f, 2.99384087e-01f,
    -1.34330317e-01f, -2.57434607e-01f, 1.64684327e-03f, -2.04847261e-01f, -8.82173982e-03f, 1.42290816e-01f, 2.31093857e-02f, -1.42149940e-01f,
    8.30364134e-03f, 5.21541089e-02f, -5.04642241e-02f, 4.33687195e-02f, -1.91283479e-01f, -4.41152640e-02f, -1.34761617e-01f, -2.79833585e-01f,
    -1.90234736e-01f, -1.84787422e-01f, -3.86519209e-02f, 1.59233496e-01f, -2.42771626e-01f, -1.35211259e-01f, -7.20774615e-03f, -2.01309785e-01f,
    1.46795728e-03f, 4.75538224e-02f, -1.25194788e-01f, 4.68395045e-03f, -1.58523962e-01f, -1.16184838e-02f, -1.28188416e-01f, 1.76477686e-01f,
    1.17734447e-02f, -7.86036476e-02f, -2.11820751e-02f, -1.35484170e-02f, -4.21149433e-02f, -2.03977851e-03f, -1.10878162e-01f, -1.86959460e-01f,
    -1.75695702e-01f, 1.55262142e-01f, -2.71373726e-02f, -1.72255322e-01f, -6.26967549e-02f, 1.86664894e-01f, -9.40031186e-02f, -4.54292335e-02f,
    -6.59257593e-03f, -2.95224525e-02f, -7.86421895e-02f, 1.55582413e-01f, -1.61476970e-01f, -5.09385802e-02f, -1.13395654e-01f, -3.49257118e-03f,
    -8.45892057e-02f, 4.21839729e-02f, -3.17855887e-02f, -1.66383553e-02f, -1.25299722e-01f, 1.00542307e-01f, -6.13312125e-02f, -8.74590129e-02f,
    2.60533467e-02f, 4.39942814e-02f, -2.37396620e-02f, 3.10790390e-02f, -3.48704495e-02f, -1.00196131e-01f, -7.98753276e-02f, 5.82120121e-02f,
    -1.39645234e-01f, -1.12723112e-01f, -7.69198639e-03f, 1.57794654e-02f, -6.62530437e-02f, -8.69381204e-02f, -8.81400630e-02f, -2.30498686e-02f,
    -7.14605153e-02f, 7.94703588e-02f, 1.41494153e-02f, -5.51759638e-02f, 6.74849302e-02f, 1.48907214e-01f, -4.61269356e-02f, -1.05997093e-01f,
    4.55091707e-02f, 5.37135564e-02f, 3.61029282e-02f, 1.24052487e-01f, -1.97188124e-01f, -1.15809567e-01f, -1.00744627e-02f, 5.58483303e-02f,
    -1.06447838e-01f, 6.25709966e-02f, -4.17899936e-02f, -8.91127810e-02f, -1.91985682e-01f, 1.71893731e-01f, 2.50305850e-02f, -4.33213040e-02f,
    -4.26085144e-02f, -4.80359374e-03f, -4.12594229e-02f, -3.19651738e-02f, -1.10598691e-01f, -2.38506570e-02f, -2.98655611e-02f, 1.59200102e-01f,
    -1.58201270e-02f, 6.71956018e-02f, -2.54680570e-02f, -1.11636460e-01f, 2.03987062e-02f, -1.67116467e-02f, -1.32881433e-01f, -9.23516005e-02f,
    -1.15789942e-01f, 2.93831211e-02f, 4.49069776e-02f, 4.60087992e-02f, -4.27573361e-02f, 1.13060273e-01f, -9.73932743e-02f, -5.94113916e-02f,
    -5.87589741e-02f, 2.52804700e-02f, -7.58777186e-02f, 4.71262075e-02f, -4.39197710e-03f, 4.25369777e-02f, -1.17197419e-02f, -1.05831243e-01f,
    -1.36006087e-01f, 9.12094861e-03f, -1.19308040e-01f, -1.14551634e-01f, -3.47516015e-02f, 4.91001830e-02f, 2.54424587e-02f, -1.39482720e-02f,
    -8.63846391e-03f, -7.94034228e-02f, -4.43023406e-02f, -5.74597381e-02f, -4.25713882e-02f, -6.61615133e-02f, -4.52835970e-02f, 2.96500344e-02f,
    1.00554982e-02f, 1.31302312e-01f, 6.35671020e-02f, -8.29194337e-02f, 2.18448322e-02f, 9.99110863e-02f, -6.39427230e-02f, -7.97514692e-02f,
    -9.63414907e-02f, 3.92440818e-02f, -9.26678926e-02f, 5.07558417e-03f, -4.99634594e-02f, 8.22297409e-02f, 1.88669562e-01f, 2.38220841e-02f,
    -4.90942672e-02f, 2.51017540e-04f, -8.72307345e-02f, 1.66461512e-01f, -8.54042470e-02f, -1.32971257e-01f, 1.70443989e-02f, -3.81957702e-02f,
    -1.06891811e-01f, -2.36494634e-02f, 7.48387864e-03f, -3.05953212e-02f, -1.08670056e-01f, 7.92381465e-02f, -1.91600295e-03f, 6.72557503e-02f,
    8.18577632e-02f, -3.55907120e-02f, -2.01789469e-01f, -1.61684796e-01f, 1.39388191e-02f, -2.39121486e-02f, -3.09246127e-02f, 8.67379382e-02f,
    3.67261432e-02f, 2.10696850e-02f, 1.25711563e-03f, -4.84289639e-02f, -1.29161209e-01f, -5.64168282e-02f, -7.75365233e-02f, 6.61863238e-02f,
    5.16765006e-02f, -2.78719142e-02f, 7.68560395e-02f, 1.13453403e-01f, 6.40827119e-02f, -5.68963587e-02f, -1.91744223e-01f, -1.41323030e-01f,
    7.80487200e-03f, 2.56244950e-02f, 5.12263775e-02f, -1.21485665e-02f, -7.42606744e-02f, 8.68670419e-02f, -4.73399907e-02f, -6.55837059e-02f,
    -1.15177415e-01f, -1.56764984e-01f, 3.58181819e-03f, -5.00857569e-02f, -2.26310920e-02f, 3.19341570e-02f, 3.06016151e-02f, 4.56012338e-02f,
    3.39417458e-02f, -3.29765640e-02f, -1.20327294e-01f, -5.68033196e-02f, 1.01219855e-01f, 9.86264125e-02f, 8.37524012e-02f, -5.51601462e-02f,
    1.53643396e-02f, 2.43245456e-02f, -4.76180352e-02f, -5.55063076e-02f, 1.38953105e-01f, 1.90088913e-01f, -3.08693084e-03f, -1.24550477e-01f,
    -5.54668494e-02f, 8.55262764e-03f, -5.83260134e-02f, -1.10182606e-01f, -1.50571227e-01f, -1.81979276e-02f, 3.00772011e-01f, 1.18667886e-01f,
